{
  "features": [
    "Ground_Heat_Flux_surface",
    "Plant_Canopy_Surface_Water_surface",
    "Temperature_surface",
    "Vegetation_Type_surface",
    "Vegetation_surface",
    "pdsi",
    "precipitation",
    "tmax",
    "tmin",
    "u-component_of_wind_hybrid",
    "v-component_of_wind_hybrid",
    "month",
    "doy"
  ],
  "scaler_mean": [
    -3.4795537410213306,
    0.04347341709846788,
    294.34189769478724,
    6.363911391678766,
    54.593273080358536,
    -1.9961191844896826,
    12.83667985550672,
    28.31729432855691,
    12.611572179434551,
    0.4603493950235788,
    0.5485395423146662,
    7.979011564016913,
    227.13141788383584
  ],
  "scaler_scale": [
    47.556490443682975,
    0.1189327799494962,
    9.624742478437522,
    3.2607513118944937,
    23.392397591788338,
    3.218056367907767,
    50.44516135751277,
    6.009804978446607,
    6.416752473832575,
    2.1840246660276517,
    2.318997561486091,
    1.2426481670638592,
    38.34803158297843
  ],
  "layers": [
    {
      "W": [
        [
          0.16111847758293152,
          -0.5074647068977356,
          -0.09903119504451752,
          0.15558916330337524,
          0.15737658739089966,
          -0.13555794954299927,
          0.12797299027442932,
          0.25048744678497314,
          0.044029612094163895,
          -0.1378180831670761,
          0.04089417681097984,
          -0.037418898195028305,
          0.3891697824001312,
          0.03184716776013374,
          -0.6224849820137024,
          0.6683515906333923,
          0.2007085680961609,
          0.8833381533622742,
          0.08876142650842667,
          -0.045236606150865555,
          -0.0022964715026319027,
          0.3572356402873993,
          0.3115920424461365,
          0.30306172370910645,
          -0.08033574372529984,
          0.7435766458511353,
          0.0708853229880333,
          0.12696410715579987,
          0.12364277988672256,
          0.5888018608093262,
          0.05124589428305626,
          0.10088769346475601,
          -0.16421276330947876,
          0.07181057333946228,
          -0.510790228843689,
          -0.04131956771016121,
          0.24798734486103058,
          -0.1407003253698349,
          -0.17165976762771606,
          0.43110391497612,
          -0.23921285569667816,
          -0.17938067018985748,
          0.34823107719421387,
          0.07359909266233444,
          0.024485742673277855,
          -0.07971390336751938,
          -0.2541462779045105,
          -0.22860464453697205,
          -0.12213680148124695,
          -0.05117056146264076,
          -0.14081840217113495,
          -0.029211487621068954,
          0.3058326542377472,
          0.469264417886734,
          0.1032721996307373,
          0.11152312904596329,
          -0.1913907527923584,
          -0.3078823983669281,
          0.0992247462272644,
          -0.035463884472846985,
          -0.11570907384157181,
          -0.2921195328235626,
          0.39194971323013306,
          -0.05272304639220238
        ],
        [
          -0.3050583600997925,
          -0.15131902694702148,
          -0.0126040643081069,
          0.2528296113014221,
          -0.10084231942892075,
          0.17946591973304749,
          -0.1824546754360199,
          0.07510354369878769,
          -0.2744256854057312,
          -0.14968864619731903,
          0.16899998486042023,
          -0.1491580456495285,
          0.24830390512943268,
          0.19725893437862396,
          0.3054850697517395,
          0.04313784837722778,
          0.1436232179403305,
          -0.034264132380485535,
          -0.07780541479587555,
          -0.5068212151527405,
          0.07332118600606918,
          -0.028452422469854355,
          0.39872536063194275,
          -0.39510655403137207,
          0.4178467094898224,
          -0.32665422558784485,
          0.12182724475860596,
          0.035184554755687714,
          0.13751302659511566,
          -0.09813807904720306,
          0.3791874051094055,
          0.05669800564646721,
          0.12134888768196106,
          0.015291704796254635,
          0.17367017269134521,
          0.18734021484851837,
          -0.47292420268058777,
          -0.1113852709531784,
          0.17808273434638977,
          0.10480080544948578,
          0.06446215510368347,
          0.014723405241966248,
          0.3291308879852295,
          -0.11915125697851181,
          0.11598218232393265,
          -0.15748444199562073,
          -0.24358142912387848,
          0.09494245797395706,
          -0.07017126679420471,
          0.1540914922952652,
          -0.16884787380695343,
          0.002388360444456339,
          0.13919246196746826,
          0.08060387521982193,
          0.29436275362968445,
          0.010462100617587566,
          0.08745960891246796,
          -0.2730138599872589,
          -0.19234654307365417,
          -0.3585931956768036,
          0.026041705161333084,
          0.11313554644584656,
          0.016380198299884796,
          0.2604880928993225
        ],
        [
          -0.08349944651126862,
          0.2750604748725891,
          0.005891608074307442,
          -0.05290672183036804,
          -0.23544393479824066,
          -0.19136910140514374,
          0.16062413156032562,
          0.08914791792631149,
          -0.01172466017305851,
          -0.2139889895915985,
          0.14664602279663086,
          0.07527845352888107,
          -0.03744402900338173,
          -0.14303746819496155,
          0.02779363840818405,
          -0.28135946393013,
          -0.34939131140708923,
          -0.010109265334904194,
          -0.2870814800262451,
          -0.003141794353723526,
          -0.0329563207924366,
          0.33937737345695496,
          0.034371305257081985,
          -0.22081105411052704,
          -0.11989772319793701,
          -0.09048306196928024,
          -0.38394248485565186,
          0.11187958717346191,
          0.164089635014534,
          0.10491102933883667,
          -0.21884948015213013,
          -0.1219518780708313,
          -0.15781757235527039,
          0.47621843218803406,
          0.3077071011066437,
          -0.08345136791467667,
          0.3036855161190033,
          -0.009549938142299652,
          -0.32932183146476746,
          0.24966901540756226,
          0.17940086126327515,
          0.1938508152961731,
          -0.3999967873096466,
          -0.006604330148547888,
          -0.281968355178833,
          -0.11379075795412064,
          -0.03100145421922207,
          0.32158347964286804,
          0.11645282059907913,
          -0.07025181502103806,
          0.437924861907959,
          -0.08107932657003403,
          0.023054393008351326,
          -0.04481007531285286,
          0.055516913533210754,
          0.08541116118431091,
          -0.1623900681734085,
          0.3344252109527588,
          0.07527487725019455,
          0.15427514910697937,
          -0.045216310769319534,
          -0.007328671403229237,
          0.6224150657653809,
          -0.2678467631340027
        ],
        [
          -0.23608367145061493,
          0.0527535080909729,
          0.368908554315567,
          0.30780354142189026,
          0.19530537724494934,
          -0.2590409517288208,
          -0.5148857831954956,
          -0.10074011236429214,
          -0.00809498131275177,
          -0.6439443826675415,
          0.04176667705178261,
          -0.45044031739234924,
          -0.11309975385665894,
          -0.21121153235435486,
          -0.2770220637321472,
          0.06111177057027817,
          -0.26158222556114197,
          -0.03234482929110527,
          -0.016836144030094147,
          0.16931025683879852,
          -0.31432920694351196,
          -0.813942015171051,
          -0.022288426756858826,
          -0.023668460547924042,
          0.6202623844146729,
          0.13851313292980194,
          -0.38916805386543274,
          -0.09660191833972931,
          -0.20908771455287933,
          0.11094878613948822,
          -0.5560570359230042,
          0.3391658365726471,
          -0.2799614369869232,
          -0.1504027545452118,
          -0.011408673599362373,
          0.5040790438652039,
          0.14023616909980774,
          -0.5897233486175537,
          -0.3728364408016205,
          -0.6361135840415955,
          -0.3892572820186615,
          0.33500438928604126,
          0.290942519903183,
          0.5254948139190674,
          0.359162300825119,
          0.31425321102142334,
          0.2849690020084381,
          0.007564967032521963,
          -0.16781318187713623,
          0.029887516051530838,
          -0.16001753509044647,
          0.004292714409530163,
          0.3839140236377716,
          -0.7740398049354553,
          -0.28250348567962646,
          0.022478876635432243,
          0.021982228383421898,
          -0.08560961484909058,
          -0.2909729480743408,
          -0.3267896771430969,
          -0.42916354537010193,
          0.38613149523735046,
          -0.04748276621103287,
          -0.010288681834936142
        ],
        [
          0.03167840465903282,
          0.1934150755405426,
          0.08235633373260498,
          -0.19824422895908356,
          -0.5767569541931152,
          -0.4487333297729492,
          -0.6160187721252441,
          -0.27853283286094666,
          -0.22172929346561432,
          0.08744273334741592,
          -0.25188738107681274,
          -0.3080303370952606,
          0.1510462611913681,
          -0.12719964981079102,
          0.27163979411125183,
          0.016095442697405815,
          -0.2998304069042206,
          -0.03213970363140106,
          0.07797649502754211,
          -0.09138783812522888,
          -0.047350138425827026,
          -0.05658676475286484,
          0.08860472589731216,
          -0.2239544540643692,
          0.15604010224342346,
          0.07572177052497864,
          0.3783634305000305,
          0.05443114414811134,
          0.411304771900177,
          0.13017430901527405,
          -0.26033347845077515,
          0.07241775840520859,
          -0.16251011192798615,
          0.28871023654937744,
          -0.03959820419549942,
          -0.38935333490371704,
          -0.11421980708837509,
          -0.3578213155269623,
          -0.29337549209594727,
          -0.4764900505542755,
          0.0006319086533039808,
          0.3750370144844055,
          0.18839380145072937,
          0.4325748383998871,
          0.7456409931182861,
          0.4978722035884857,
          0.06404902040958405,
          -0.32879844307899475,
          -0.2569485306739807,
          0.5761719942092896,
          -0.24523000419139862,
          -0.4544682800769806,
          -0.1624525785446167,
          -0.12803909182548523,
          -0.05419382452964783,
          -0.3177551031112671,
          0.41881057620048523,
          0.28847116231918335,
          0.5797572731971741,
          0.13690389692783356,
          0.178099125623703,
          0.028196129947900772,
          0.016388138756155968,
          -0.384797066450119
        ],
        [
          -0.4011155068874359,
          0.07198693603277206,
          0.8795650005340576,
          -0.32335278391838074,
          0.08600624650716782,
          -0.36975422501564026,
          0.09820505231618881,
          -0.42425432801246643,
          -0.40755537152290344,
          0.3946160078048706,
          -0.055758360773324966,
          0.3517944812774658,
          -0.13634224236011505,
          0.29742610454559326,
          0.10619965940713882,
          0.1569269299507141,
          0.3940485417842865,
          -0.13290371000766754,
          0.026983272284269333,
          0.19319644570350647,
          -0.9809998273849487,
          0.044493548572063446,
          0.0009084261255338788,
          -0.26049160957336426,
          -0.5052379965782166,
          0.14538858830928802,
          0.08067739754915237,
          0.4277431070804596,
          0.34202760457992554,
          0.3899371325969696,
          0.20573855936527252,
          -0.5330941677093506,
          0.2860764265060425,
          -0.33370304107666016,
          0.1941642016172409,
          0.4042935371398926,
          0.030584895983338356,
          -0.46890729665756226,
          0.3626868724822998,
          -0.41447004675865173,
          0.2696405351161957,
          -0.2966219484806061,
          -0.34833261370658875,
          -0.16754034161567688,
          0.014500603079795837,
          0.5691043138504028,
          -0.3712054193019867,
          0.12012171000242233,
          -0.5859917998313904,
          -0.24201826751232147,
          -0.16662541031837463,
          0.8552587032318115,
          0.2611241638660431,
          0.14682084321975708,
          -0.3786792755126953,
          0.05845048278570175,
          -0.3233841061592102,
          -0.2665042281150818,
          0.40493419766426086,
          -0.3060714900493622,
          -0.3148795962333679,
          0.2800312042236328,
          0.11101965606212616,
          0.03429833799600601
        ],
        [
          -0.630203366279602,
          -0.2720257043838501,
          -0.016906071454286575,
          -0.1452203094959259,
          -0.5692810416221619,
          -0.09054500609636307,
          0.04602488875389099,
          -0.14939825236797333,
          -0.4732678234577179,
          0.028978291898965836,
          0.16761747002601624,
          0.010832094587385654,
          -0.6668636798858643,
          -0.16349177062511444,
          0.06873473525047302,
          0.06604180485010147,
          0.09616433084011078,
          -0.020922167226672173,
          -0.23383696377277374,
          -0.6192225217819214,
          0.14725324511528015,
          0.1449541449546814,
          -0.11343250423669815,
          -0.051697976887226105,
          0.09822134673595428,
          0.03160547837615013,
          0.06442872434854507,
          0.0009118857560679317,
          0.39119601249694824,
          0.16568158566951752,
          -0.43084827065467834,
          -0.1846364438533783,
          -0.19121518731117249,
          0.12868361175060272,
          0.18949492275714874,
          0.16521380841732025,
          -0.26730868220329285,
          0.1534796804189682,
          -0.05769846588373184,
          0.23554390668869019,
          0.2653585970401764,
          0.16934549808502197,
          0.42698121070861816,
          0.002100081415846944,
          0.032067470252513885,
          -0.11619817465543747,
          -0.012453860603272915,
          -0.2377820611000061,
          -0.28649502992630005,
          -0.06334120035171509,
          -0.25393208861351013,
          -0.027538521215319633,
          -0.17714178562164307,
          -0.021952515468001366,
          -0.4640290141105652,
          0.07827388495206833,
          0.05973926931619644,
          0.20376791059970856,
          0.15512505173683167,
          -0.5308611989021301,
          -0.5499312877655029,
          -0.05782188102602959,
          -0.12541665136814117,
          0.04401770234107971
        ],
        [
          -0.07994091510772705,
          -0.15647344291210175,
          -0.16190195083618164,
          0.0004267279291525483,
          0.34941184520721436,
          -0.3318493962287903,
          -0.05158553645014763,
          0.17829996347427368,
          0.09601085633039474,
          0.12132578343153,
          -0.1420663744211197,
          -0.40116995573043823,
          0.11921375244855881,
          -0.29438942670822144,
          -0.08164256066083908,
          0.06178448721766472,
          0.32070252299308777,
          0.026959538459777832,
          0.07398942857980728,
          0.05836312100291252,
          0.14711332321166992,
          0.039228182286024094,
          0.1599600464105606,
          -0.12131232768297195,
          -0.011692611500620842,
          0.014378104358911514,
          0.2830425798892975,
          -0.15302613377571106,
          -0.1446540653705597,
          0.3916260898113251,
          0.1441349983215332,
          -0.3874966502189636,
          0.4859863221645355,
          0.148725688457489,
          -0.2478429526090622,
          0.19818459451198578,
          0.33555278182029724,
          -0.2444508820772171,
          -0.06354686617851257,
          0.13574117422103882,
          0.20498831570148468,
          -0.23521016538143158,
          0.14959275722503662,
          -0.03400932624936104,
          -0.19117510318756104,
          0.1335059553384781,
          -0.0007018368341960013,
          0.13732443749904633,
          0.0822054073214531,
          -0.018215347081422806,
          0.0030465826857835054,
          0.14104686677455902,
          0.034196898341178894,
          0.26385119557380676,
          -0.23785950243473053,
          0.27960795164108276,
          0.10532758384943008,
          0.021825851872563362,
          -0.44711750745773315,
          0.03307392820715904,
          0.15452277660369873,
          -0.036174070090055466,
          -0.23314638435840607,
          0.21131867170333862
        ],
        [
          0.11536014825105667,
          -0.11499831825494766,
          0.33921748399734497,
          -0.11014343053102493,
          -0.011755328625440598,
          0.14744189381599426,
          0.244874969124794,
          -0.059402842074632645,
          -0.033474765717983246,
          -0.12753531336784363,
          -0.46225348114967346,
          0.15377065539360046,
          -0.027504602447152138,
          0.42003482580184937,
          0.11283677071332932,
          0.03426021710038185,
          -0.1287299245595932,
          0.27595752477645874,
          0.0433255210518837,
          -0.22450119256973267,
          0.00765478378161788,
          -0.23823970556259155,
          -0.10639826208353043,
          -0.08441965281963348,
          -0.06115235760807991,
          -0.06175614148378372,
          -0.2544669210910797,
          -0.21594585478305817,
          0.11935661733150482,
          0.2821171283721924,
          0.24727146327495575,
          -0.18104682862758636,
          -0.4661286771297455,
          0.2662874162197113,
          0.1240682452917099,
          -0.4219684302806854,
          -0.2901949882507324,
          0.29305922985076904,
          -0.331786572933197,
          -0.34155189990997314,
          -0.27988117933273315,
          -0.5603891015052795,
          -0.06336657702922821,
          0.08316997438669205,
          0.110183484852314,
          -0.07890420407056808,
          -0.3623642921447754,
          -0.2782489061355591,
          -0.23031021654605865,
          0.1577156037092209,
          -0.12917020916938782,
          0.22001205384731293,
          -0.07639625668525696,
          -0.24007229506969452,
          -0.18859711289405823,
          -0.203250914812088,
          0.19444246590137482,
          0.18669699132442474,
          0.16496768593788147,
          -0.0025731725618243217,
          -0.25689056515693665,
          0.09320098161697388,
          -0.24005764722824097,
          -0.6318883299827576
        ],
        [
          -0.26644742488861084,
          -0.13687753677368164,
          -0.124801404774189,
          -0.07322874665260315,
          0.30569788813591003,
          -0.03325061500072479,
          -0.07293049246072769,
          -0.04000444710254669,
          -0.028546756133437157,
          0.07117720693349838,
          -0.3260831832885742,
          0.05460945516824722,
          -0.008025867864489555,
          -0.25114190578460693,
          0.1887689083814621,
          0.035783618688583374,
          0.07214686274528503,
          0.022874606773257256,
          0.4765249788761139,
          0.04845545068383217,
          0.03821196407079697,
          -0.04794546589255333,
          -0.023936057463288307,
          0.20163606107234955,
          0.03932562097907066,
          -0.06276492029428482,
          -0.020686035975813866,
          -0.1540897935628891,
          -0.09168136864900589,
          0.30015912652015686,
          -0.21402423083782196,
          -0.18032823503017426,
          -0.21850749850273132,
          -0.1562994122505188,
          -0.055341463536024094,
          0.003025088692083955,
          -0.020261656492948532,
          -0.13009750843048096,
          0.20116953551769257,
          0.13654977083206177,
          0.3370444178581238,
          0.07767901569604874,
          0.4594479501247406,
          0.0009805458830669522,
          0.05200393870472908,
          0.15619081258773804,
          0.3108792304992676,
          0.042552970349788666,
          -0.09786637872457504,
          0.1632484346628189,
          0.10609438270330429,
          0.03685203194618225,
          -0.42868390679359436,
          -0.0067470483481884,
          -0.08003809303045273,
          0.3165546655654907,
          0.4106268584728241,
          0.15558212995529175,
          -0.00787744577974081,
          0.20629775524139404,
          -0.02483174577355385,
          -0.20545676350593567,
          0.112123504281044,
          0.07331220805644989
        ],
        [
          0.11796460300683975,
          -0.12332913279533386,
          -0.19737084209918976,
          0.07990343868732452,
          -0.03517870977520943,
          -0.07248282432556152,
          0.193825826048851,
          -0.10342808812856674,
          -0.05262770503759384,
          -0.10559288412332535,
          0.212484210729599,
          -0.00925820879638195,
          0.16153036057949066,
          0.4026293456554413,
          -0.14470569789409637,
          0.08495967835187912,
          0.21253304183483124,
          -0.09513350576162338,
          -0.029804686084389687,
          -0.28923413157463074,
          0.003701781388372183,
          0.16855555772781372,
          0.3478181064128876,
          0.3628917932510376,
          -0.11733757704496384,
          0.24518974125385284,
          -0.10905244946479797,
          0.15954366326332092,
          -0.03675735741853714,
          0.16224218904972076,
          -0.08383572846651077,
          -0.09620548784732819,
          -0.020719492807984352,
          -0.31915831565856934,
          0.040426552295684814,
          0.0465579479932785,
          -0.07627856731414795,
          0.05032922700047493,
          0.1165214478969574,
          0.10687559098005295,
          0.21209466457366943,
          -0.014867865480482578,
          0.2100767195224762,
          0.07045701891183853,
          0.050312723964452744,
          0.0008664271445013583,
          0.07563652098178864,
          0.008891917765140533,
          -0.2878790497779846,
          -0.006353018805384636,
          -0.051375631242990494,
          -0.0183880478143692,
          -0.04141247645020485,
          -0.1135944202542305,
          0.07308081537485123,
          -0.31385329365730286,
          0.1308862864971161,
          0.03424873948097229,
          0.059105489403009415,
          0.05499059706926346,
          -0.027067283168435097,
          0.45686182379722595,
          0.30071187019348145,
          -0.2742582857608795
        ],
        [
          -0.05725536122918129,
          0.07584475725889206,
          0.19497516751289368,
          -0.19648632407188416,
          -0.007274152245372534,
          -0.004215523134917021,
          -0.3293229937553406,
          0.5207675695419312,
          0.09971785545349121,
          -0.02038130909204483,
          -0.18821780383586884,
          0.017934437841176987,
          -0.13317559659481049,
          -0.246219664812088,
          0.18199104070663452,
          0.2787795960903168,
          0.10887657105922699,
          -0.10514068603515625,
          0.006360429339110851,
          0.06815213710069656,
          0.3685413599014282,
          0.11022631078958511,
          -0.09265170246362686,
          0.04365810751914978,
          0.25495782494544983,
          -0.22154061496257782,
          -0.14296841621398926,
          0.03642238676548004,
          -0.5170103907585144,
          -0.09826061129570007,
          0.22395052015781403,
          0.36410531401634216,
          0.07056047022342682,
          -0.23183338344097137,
          0.1563461273908615,
          -0.07493659108877182,
          -0.14455533027648926,
          -0.21705715358257294,
          0.16344799101352692,
          0.12137152999639511,
          -0.15575140714645386,
          -0.3500168025493622,
          0.07659812271595001,
          0.1620185226202011,
          0.2087458372116089,
          0.2537098526954651,
          -0.1476433277130127,
          -0.04496844485402107,
          0.42122000455856323,
          0.24864795804023743,
          0.06954782456159592,
          0.016382936388254166,
          0.14950838685035706,
          0.024664198979735374,
          0.09506427496671677,
          0.46781855821609497,
          0.07369066029787064,
          0.07525715976953506,
          0.1470239907503128,
          0.14081460237503052,
          -0.13609519600868225,
          -0.10474257171154022,
          0.0033103751484304667,
          -0.09184495359659195
        ],
        [
          -0.21145109832286835,
          -0.269493967294693,
          -0.05090354010462761,
          -0.4092588722705841,
          0.42465534806251526,
          0.08818463981151581,
          0.008519615046679974,
          0.14512306451797485,
          -0.28844526410102844,
          -0.35847577452659607,
          0.4149670898914337,
          -0.24751558899879456,
          -0.35816091299057007,
          -0.08150072395801544,
          -0.04312543943524361,
          -0.3004845082759857,
          0.06361856311559677,
          0.035684842616319656,
          -0.008599861524999142,
          -0.27129629254341125,
          -0.0900980606675148,
          -0.363581120967865,
          0.02572792023420334,
          -0.029194030910730362,
          0.2351291924715042,
          0.101384736597538,
          -0.20088262856006622,
          -0.5383855104446411,
          0.04147806391119957,
          -0.05912628769874573,
          0.2754535675048828,
          -0.26363956928253174,
          -0.05511799827218056,
          -0.30161431431770325,
          0.036982934921979904,
          0.03041449934244156,
          -0.0896015465259552,
          0.5326778888702393,
          0.1511172354221344,
          0.2393292337656021,
          0.1902015656232834,
          0.11666660755872726,
          -0.16390086710453033,
          -0.3387370705604553,
          0.0032874220050871372,
          0.5422464609146118,
          0.07249646633863449,
          0.19531631469726562,
          0.39670634269714355,
          0.6380084753036499,
          -0.2902592122554779,
          0.1679994910955429,
          -0.23371705412864685,
          0.2905445098876953,
          -0.2526155710220337,
          -0.043381378054618835,
          -0.438323050737381,
          -0.014579685404896736,
          0.26778149604797363,
          0.06997997313737869,
          0.3631057143211365,
          0.29444655776023865,
          0.12279004603624344,
          0.04581401124596596
        ]
      ],
      "b": [
        0.1542513519525528,
        -0.12693341076374054,
        0.12421569228172302,
        0.08977936208248138,
        -0.01676790788769722,
        -0.15917350351810455,
        -0.014001519419252872,
        0.06583321839570999,
        -0.020266089588403702,
        -0.048144880682229996,
        -0.029107140377163887,
        0.3166573643684387,
        -0.0037091881968080997,
        0.011411724612116814,
        -0.19226883351802826,
        0.37636756896972656,
        0.04153374582529068,
        0.28463006019592285,
        -0.02527266927063465,
        -0.0501045286655426,
        -0.3229638636112213,
        0.17674988508224487,
        0.0008421944221481681,
        -0.10564392060041428,
        -0.2005826234817505,
        0.03610159829258919,
        0.11018777638673782,
        3.1021249014884233e-05,
        -0.3738991618156433,
        0.15714392066001892,
        -0.099872887134552,
        -0.20560605823993683,
        0.2779880166053772,
        -0.19250403344631195,
        0.1584249883890152,
        -0.036857280880212784,
        0.03223242238163948,
        -0.451404333114624,
        -0.11102291196584702,
        -0.15786762535572052,
        0.056252371519804,
        0.09466227144002914,
        0.027234341949224472,
        -0.052738383412361145,
        0.26905545592308044,
        0.24679386615753174,
        -0.21755528450012207,
        -0.1623542159795761,
        -0.10836675763130188,
        -0.03430551663041115,
        0.0569075271487236,
        -0.1862032562494278,
        -0.22129322588443756,
        -0.058038730174303055,
        -0.25030678510665894,
        -0.138618603348732,
        -0.25872641801834106,
        -0.05439024418592453,
        0.1922389417886734,
        -0.14491817355155945,
        0.22272293269634247,
        -0.10259391367435455,
        0.16207928955554962,
        -0.09130921959877014
      ]
    },
    {
      "W": [
        [
          0.06075957044959068,
          0.3592207431793213,
          -0.5383301973342896,
          -0.20144745707511902,
          0.11489646881818771,
          -0.03791448846459389,
          0.21157512068748474,
          0.03413783758878708,
          0.3090019226074219,
          -0.1963658630847931,
          0.4298565983772278,
          0.1810828447341919,
          -0.32813116908073425,
          0.04871905595064163,
          0.37220650911331177,
          -0.20105843245983124,
          0.2949635088443756,
          -0.28971579670906067,
          -0.22076815366744995,
          -0.5754967927932739,
          -0.29290255904197693,
          0.07499995827674866,
          0.16137494146823883,
          0.07497880607843399,
          -0.15050922334194183,
          -0.04977627471089363,
          0.26044487953186035,
          0.0397719107568264,
          0.13429445028305054,
          -0.0044274176470935345,
          0.3149803578853607,
          -0.1779007613658905
        ],
        [
          -0.03373226523399353,
          -0.045453183352947235,
          0.009327547624707222,
          -0.19858568906784058,
          0.13155820965766907,
          0.13206824660301208,
          0.16719113290309906,
          0.4121147394180298,
          -0.0723952203989029,
          -0.2576737105846405,
          -0.07186567038297653,
          0.033696334809064865,
          -0.16068017482757568,
          -1.2083731889724731,
          -0.14768841862678528,
          -0.2809363603591919,
          -0.11571205407381058,
          -0.2576075792312622,
          -0.08171913772821426,
          -0.31725794076919556,
          -0.19677750766277313,
          -0.1034558042883873,
          0.19903023540973663,
          0.12069059163331985,
          0.3590220808982849,
          -0.2882968783378601,
          -0.11405627429485321,
          0.07933598011732101,
          0.3146563172340393,
          0.08990909904241562,
          -0.0026940489187836647,
          0.10274405777454376
        ],
        [
          -0.11259695887565613,
          -0.122174471616745,
          0.0027686646208167076,
          0.08581030368804932,
          -0.1960730403661728,
          0.10719936341047287,
          0.21372662484645844,
          -0.28285107016563416,
          -0.6012879610061646,
          -0.15585413575172424,
          0.18750837445259094,
          -0.39760276675224304,
          0.2000505030155182,
          -0.12336747348308563,
          0.12115006893873215,
          -0.4662885367870331,
          -0.12837710976600647,
          -0.27458444237709045,
          -0.5170501470565796,
          -0.06309332698583603,
          0.09940845519304276,
          -0.20052796602249146,
          -0.40608546137809753,
          -0.16292479634284973,
          -0.07557186484336853,
          -0.20324523746967316,
          -0.16599246859550476,
          0.36551687121391296,
          -0.2366122007369995,
          -0.14199402928352356,
          -0.11532732099294662,
          -1.170817494392395
        ],
        [
          0.00762168550863862,
          -0.06458161026239395,
          0.09076999127864838,
          -0.22435462474822998,
          -0.4209499657154083,
          -0.025909075513482094,
          -0.32681480050086975,
          0.5038167238235474,
          -0.4855602979660034,
          0.03620187193155289,
          0.031485415995121,
          -0.31512582302093506,
          0.1266798973083496,
          -0.013812137767672539,
          -0.1471291482448578,
          -0.03667304664850235,
          0.17010536789894104,
          -0.054103411734104156,
          0.15702463686466217,
          0.13060517609119415,
          -0.09505510330200195,
          0.33362236618995667,
          -0.07732445746660233,
          0.3353283405303955,
          0.23345531523227692,
          0.0972823053598404,
          -0.20910528302192688,
          -0.1154053658246994,
          -0.2019219696521759,
          -0.2502025365829468,
          -0.07217027246952057,
          -0.14604529738426208
        ],
        [
          -0.10542728751897812,
          0.08201650530099869,
          -0.21999676525592804,
          -0.22793693840503693,
          -0.33692267537117004,
          -0.041291166096925735,
          -0.11808419972658157,
          -0.35482892394065857,
          0.16415362060070038,
          -0.27334773540496826,
          0.0667141005396843,
          -0.13699057698249817,
          -0.23248353600502014,
          -0.1004423201084137,
          -0.36229074001312256,
          0.34225791692733765,
          -0.25355684757232666,
          0.14635442197322845,
          -0.1655457764863968,
          -0.19099707901477814,
          -0.12726885080337524,
          0.05052477866411209,
          0.4211030602455139,
          0.2269299477338791,
          0.2586059272289276,
          0.23682500422000885,
          0.32637840509414673,
          -0.34122082591056824,
          0.0638345330953598,
          0.2878146469593048,
          -0.5671167969703674,
          0.44514545798301697
        ],
        [
          0.37515711784362793,
          0.47895294427871704,
          0.0033913804218173027,
          0.02398771047592163,
          -0.0059484499506652355,
          -0.25823289155960083,
          0.029221167787909508,
          -0.08040747791528702,
          -0.09484332799911499,
          0.15527403354644775,
          0.4071829915046692,
          0.28387314081192017,
          -0.4182356595993042,
          -0.14419114589691162,
          -0.14839714765548706,
          -0.11923408508300781,
          -0.20106923580169678,
          -0.08964016288518906,
          -0.02359902299940586,
          0.2101122885942459,
          0.1767006516456604,
          -0.14888720214366913,
          -0.508780837059021,
          0.03259345889091492,
          -0.05855011194944382,
          -0.07471796125173569,
          0.02752060815691948,
          0.3016364574432373,
          -0.09085218608379364,
          -0.3544727861881256,
          -0.563965916633606,
          0.18244653940200806
        ],
        [
          0.022028997540473938,
          -0.310447096824646,
          -0.08743131905794144,
          -0.17327074706554413,
          0.04128860682249069,
          -0.6793458461761475,
          0.4661537706851959,
          -0.2101537585258484,
          -0.08408617228269577,
          -0.617649495601654,
          -0.2327958643436432,
          0.5504141449928284,
          -0.03572875261306763,
          0.09155227243900299,
          -0.0972641184926033,
          0.18458229303359985,
          0.008604920469224453,
          0.1942293643951416,
          0.15857966244220734,
          0.27567389607429504,
          -0.02475016936659813,
          -0.06293655931949615,
          0.1529218554496765,
          -0.04879895597696304,
          0.07587592303752899,
          0.34345003962516785,
          0.1058926060795784,
          -0.08365539461374283,
          -0.03992024436593056,
          -0.37383225560188293,
          -0.1275762915611267,
          0.07311274111270905
        ],
        [
          -0.06979464739561081,
          0.00916996318846941,
          0.21962378919124603,
          0.24539758265018463,
          0.21363908052444458,
          -0.002766104182228446,
          0.05089958384633064,
          0.13150210678577423,
          0.02001051977276802,
          0.06285277754068375,
          0.4683608114719391,
          0.10625260323286057,
          -0.5733378529548645,
          -0.4304034113883972,
          0.4121001958847046,
          -0.014430461451411247,
          0.3232227563858032,
          0.16420477628707886,
          0.013229072093963623,
          -0.037144359201192856,
          0.12352295964956284,
          0.12448439747095108,
          0.19894939661026,
          -0.24774155020713806,
          -0.08364470303058624,
          0.09768843650817871,
          -0.06733879446983337,
          0.08645514398813248,
          0.00826605036854744,
          0.04982569441199303,
          -0.29369208216667175,
          0.046150438487529755
        ],
        [
          0.06156987324357033,
          -0.05804627761244774,
          -0.28352612257003784,
          0.11342748254537582,
          0.3431089222431183,
          -0.12717154622077942,
          0.41843438148498535,
          0.34701263904571533,
          0.336317777633667,
          0.27461352944374084,
          0.2153978943824768,
          0.06008575111627579,
          0.1960161328315735,
          0.042342521250247955,
          0.051215942949056625,
          0.04542865604162216,
          -0.11212179064750671,
          0.0793425589799881,
          -0.04273559898138046,
          0.04525040090084076,
          -0.25485360622406006,
          -0.5863195061683655,
          0.0128090288490057,
          -0.07616930454969406,
          -0.031179217621684074,
          0.06733937561511993,
          -0.041710708290338516,
          0.11187372356653214,
          0.2239692509174347,
          0.12073884159326553,
          -0.23659364879131317,
          0.09769013524055481
        ],
        [
          0.08687949925661087,
          0.1692037284374237,
          -0.015590923838317394,
          -0.07919011265039444,
          -0.05073972046375275,
          0.054074760526418686,
          -0.1826343685388565,
          -0.36564892530441284,
          0.013376917690038681,
          0.14531998336315155,
          0.035432521253824234,
          -0.5305871963500977,
          0.08607519418001175,
          -0.36656811833381653,
          0.10306067764759064,
          0.07370118796825409,
          -0.08832969516515732,
          0.0765589103102684,
          0.11338309198617935,
          0.24925419688224792,
          -0.12410072237253189,
          -0.2570381462574005,
          0.3027978241443634,
          0.13669848442077637,
          -0.07875285297632217,
          0.4531412422657013,
          -0.3203437924385071,
          0.2676258683204651,
          -0.23626740276813507,
          0.08093865215778351,
          0.17303767800331116,
          0.061641793698072433
        ],
        [
          -0.2075229436159134,
          0.15722104907035828,
          0.19248519837856293,
          -0.24676141142845154,
          -0.23460108041763306,
          0.03018682450056076,
          0.17726530134677887,
          0.07582496106624603,
          -0.0333472304046154,
          0.29315805435180664,
          -0.015809185802936554,
          0.054985955357551575,
          -0.09790787845849991,
          0.09053294360637665,
          0.12941396236419678,
          0.33006808161735535,
          -0.19424274563789368,
          0.1669783741235733,
          0.24483783543109894,
          0.18979765474796295,
          0.3172079026699066,
          0.06229168549180031,
          0.08949507772922516,
          0.061206117272377014,
          0.09728914499282837,
          0.1194213405251503,
          0.3862955570220947,
          0.001854449394159019,
          0.013785233721137047,
          -0.3851954936981201,
          0.27415135502815247,
          -0.012870598584413528
        ],
        [
          0.12810580432415009,
          0.3747575879096985,
          -0.07970404624938965,
          -0.112694151699543,
          0.3747063875198364,
          -0.2903580665588379,
          -0.18049870431423187,
          -0.06091427803039551,
          0.11724001169204712,
          -0.11614523082971573,
          0.007324205245822668,
          -0.2060663402080536,
          0.26087072491645813,
          0.07101117074489594,
          0.054358914494514465,
          -0.15328611433506012,
          -0.2435825914144516,
          -0.10753275454044342,
          0.3156379163265228,
          0.022661056369543076,
          0.35807177424430847,
          0.22510136663913727,
          -0.19180510938167572,
          0.07287526875734329,
          -0.12361536175012589,
          0.018509255722165108,
          0.5346556305885315,
          0.34772706031799316,
          0.16606558859348297,
          0.23485758900642395,
          0.2849011719226837,
          -0.5815954804420471
        ],
        [
          0.07388437539339066,
          0.3382592797279358,
          -0.2771984040737152,
          0.16244721412658691,
          0.27024656534194946,
          0.029609786346554756,
          0.4046647548675537,
          0.14906606078147888,
          -0.19633425772190094,
          0.5363611578941345,
          0.3641694486141205,
          0.12062200903892517,
          0.007821580395102501,
          -0.2509530186653137,
          -0.15679119527339935,
          0.043138276785612106,
          0.1978345811367035,
          0.03564240410923958,
          0.010409782640635967,
          -0.40204674005508423,
          -0.33271101117134094,
          0.05299581587314606,
          0.28751039505004883,
          -0.014697202481329441,
          -0.005645363125950098,
          -0.03777538612484932,
          0.15865644812583923,
          0.003346252255141735,
          0.14963456988334656,
          -0.20146743953227997,
          0.3019314408302307,
          -0.0942821279168129
        ],
        [
          -0.18338850140571594,
          -0.0910642221570015,
          0.004544300027191639,
          -0.21871130168437958,
          -0.25884535908699036,
          0.17953376471996307,
          0.03531660884618759,
          -0.11491451412439346,
          -0.047713752835989,
          -0.00931424368172884,
          -0.13890434801578522,
          0.0722460225224495,
          0.00188750633969903,
          -0.1900739222764969,
          0.35500630736351013,
          0.41421177983283997,
          -0.06353335082530975,
          -0.311608225107193,
          -0.10620656609535217,
          -0.0325230173766613,
          0.09819724410772324,
          0.1632155030965805,
          0.0650649145245552,
          0.008935014717280865,
          -0.023230092599987984,
          0.31116965413093567,
          -0.15700729191303253,
          -0.24679632484912872,
          0.07219204306602478,
          -0.07847333699464798,
          0.4795301854610443,
          -0.12994807958602905
        ],
        [
          0.31425076723098755,
          -0.26867857575416565,
          0.2534928023815155,
          0.15044960379600525,
          -0.42900165915489197,
          -0.24157989025115967,
          -0.3268263041973114,
          0.10095922648906708,
          0.034846436232328415,
          0.10072576999664307,
          0.24663105607032776,
          -0.2780371308326721,
          -0.09768551588058472,
          -0.6396299600601196,
          -0.1335635483264923,
          -0.3817318081855774,
          -0.28878647089004517,
          -0.2589333951473236,
          -0.47793516516685486,
          -0.12459937483072281,
          0.40773293375968933,
          0.13081134855747223,
          -0.20963479578495026,
          -0.05079309269785881,
          -0.004672118462622166,
          0.027216393500566483,
          -0.2421693056821823,
          0.17227135598659515,
          -0.21202205121517181,
          0.12922364473342896,
          0.33886975049972534,
          -0.06277484446763992
        ],
        [
          0.19631604850292206,
          -0.1539555937051773,
          0.002336879028007388,
          -0.055299095809459686,
          0.36864835023880005,
          -0.4532802104949951,
          -0.2657463550567627,
          0.15025430917739868,
          -0.04722746089100838,
          -0.6483575701713562,
          -0.025335267186164856,
          0.14307531714439392,
          -1.096971035003662,
          0.1533423364162445,
          0.4836653769016266,
          0.11486397683620453,
          0.1625826209783554,
          -0.022630782797932625,
          0.3425852060317993,
          -0.5268116593360901,
          0.1067362055182457,
          0.10316761583089828,
          -0.08634501695632935,
          0.5609380006790161,
          0.09861423820257187,
          0.00273066945374012,
          0.08395634591579437,
          0.18407683074474335,
          0.10074795037508011,
          -0.3555344045162201,
          0.12095161527395248,
          0.18663610517978668
        ],
        [
          0.19119660556316376,
          -0.4889012575149536,
          0.17514567077159882,
          -0.19795121252536774,
          0.3555571138858795,
          0.5441324710845947,
          -0.13303589820861816,
          -0.33117321133613586,
          -0.04415139928460121,
          -0.01603674702346325,
          -0.20562335848808289,
          -0.24302098155021667,
          -0.15684856474399567,
          -0.1293945461511612,
          0.27907124161720276,
          0.10791853070259094,
          -0.08220643550157547,
          -0.10984930396080017,
          0.017083296552300453,
          -0.28778424859046936,
          0.025916917249560356,
          0.20314866304397583,
          0.05931388586759567,
          -0.4486032724380493,
          -0.16254720091819763,
          -0.14959433674812317,
          -0.45351117849349976,
          -0.07282529026269913,
          -0.24464695155620575,
          0.044657912105321884,
          -0.6015532612800598,
          0.05946367233991623
        ],
        [
          0.21755287051200867,
          -0.055613595992326736,
          0.027315424755215645,
          0.03572206199169159,
          -0.012042141519486904,
          -1.512239694595337,
          -0.12453410029411316,
          -0.05679769441485405,
          -0.10824216157197952,
          0.10352349281311035,
          -0.22001494467258453,
          0.1842944622039795,
          -0.6624974012374878,
          0.12891149520874023,
          0.3044460415840149,
          0.0964483693242073,
          0.045883383601903915,
          -0.17452868819236755,
          0.3118825852870941,
          -1.0463804006576538,
          0.29814791679382324,
          -0.06069916859269142,
          -0.15845316648483276,
          0.15797263383865356,
          0.05314075946807861,
          0.07447481155395508,
          0.09402970969676971,
          -0.056395821273326874,
          0.07874477654695511,
          -0.1719711273908615,
          0.056158989667892456,
          0.08128748834133148
        ],
        [
          -0.04957631975412369,
          0.4729181230068207,
          0.016016457229852676,
          -0.1515645831823349,
          0.09202943742275238,
          -0.17213964462280273,
          0.14593221247196198,
          0.23399244248867035,
          0.16108348965644836,
          -0.2313796430826187,
          0.2266431301832199,
          0.014863808639347553,
          -0.02182409167289734,
          0.150638610124588,
          0.011842118576169014,
          0.03878894820809364,
          -0.05993033945560455,
          -0.1991347074508667,
          0.16307413578033447,
          0.17475029826164246,
          -0.17853067815303802,
          0.027231764048337936,
          0.08733334392309189,
          0.5740893483161926,
          -0.07843920588493347,
          -0.06744783371686935,
          0.11152487993240356,
          0.10549432039260864,
          0.2815408706665039,
          -0.1598970890045166,
          0.4969726800918579,
          0.2513606548309326
        ],
        [
          0.10650556534528732,
          0.1814448982477188,
          0.07823662459850311,
          0.26282861828804016,
          -0.07443900406360626,
          0.04771286994218826,
          0.3953457772731781,
          0.18397830426692963,
          0.2100563645362854,
          0.008106103166937828,
          -0.14050818979740143,
          -0.35857057571411133,
          0.21878081560134888,
          0.3316173255443573,
          -0.4139770269393921,
          -0.14143574237823486,
          0.011060032062232494,
          -0.0019019335741177201,
          0.12901467084884644,
          0.11031986773014069,
          -0.023267770186066628,
          0.07710947841405869,
          -0.008905635215342045,
          0.5249710083007812,
          0.08815059810876846,
          0.25790372490882874,
          0.3512548506259918,
          -0.15116558969020844,
          -0.09907695651054382,
          0.025428103283047676,
          0.12635517120361328,
          -0.11967501789331436
        ],
        [
          0.10773204267024994,
          0.012441664934158325,
          -0.2944698631763458,
          -0.2569054961204529,
          0.5015794038772583,
          0.22975878417491913,
          0.127088725566864,
          -0.1575266420841217,
          0.10951422899961472,
          0.2982535660266876,
          0.11552250385284424,
          -0.20885373651981354,
          -0.5420779585838318,
          -0.024235788732767105,
          0.33676332235336304,
          -1.0000509023666382,
          0.23268072307109833,
          -0.5093845725059509,
          -0.11520364880561829,
          0.1277054399251938,
          -0.10669299960136414,
          -0.46529829502105713,
          -0.3352389633655548,
          -0.4591481685638428,
          0.3269135355949402,
          -0.35187479853630066,
          -0.4389225244522095,
          -0.10871684551239014,
          -0.260871559381485,
          -0.6569334268569946,
          -0.33763617277145386,
          -0.19858507812023163
        ],
        [
          -0.05437622591853142,
          0.6011033654212952,
          0.02250458300113678,
          -0.0728626698255539,
          0.35424724221229553,
          0.027404624968767166,
          -0.02444191835820675,
          0.4394387900829315,
          0.11455577611923218,
          -0.2530723214149475,
          -0.1892843097448349,
          -0.2173239290714264,
          -0.12775030732154846,
          0.2509910762310028,
          -0.1576692759990692,
          -0.44107604026794434,
          0.3201367259025574,
          -0.007743011694401503,
          0.26762881875038147,
          -0.4825904667377472,
          -0.23442614078521729,
          -0.31838446855545044,
          -0.17300409078598022,
          0.10212986171245575,
          -0.036403588950634,
          -0.44480088353157043,
          -0.21957342326641083,
          0.0008615778060629964,
          0.3115426301956177,
          -0.08141148835420609,
          -0.4510052502155304,
          0.554558277130127
        ],
        [
          -0.019535023719072342,
          0.1554146558046341,
          -0.28495898842811584,
          -0.1564333438873291,
          0.13301022350788116,
          -0.25102484226226807,
          0.17180600762367249,
          -0.06435508280992508,
          -0.09487007558345795,
          -0.15307338535785675,
          0.07752151787281036,
          0.25870734453201294,
          0.3187348544597626,
          -0.1463933140039444,
          0.12589290738105774,
          0.16087375581264496,
          -0.2516588866710663,
          0.07666171342134476,
          0.1385306566953659,
          -0.12377631664276123,
          -0.2794772684574127,
          -0.14201301336288452,
          0.033715151250362396,
          -0.19758115708827972,
          -0.22415338456630707,
          -0.1390523463487625,
          0.18221497535705566,
          0.03891754895448685,
          -0.0539945587515831,
          0.17902858555316925,
          0.1626439243555069,
          0.16737216711044312
        ],
        [
          -0.0411856509745121,
          0.19577303528785706,
          0.11153183877468109,
          -0.03518955782055855,
          0.11464942991733551,
          -0.03954048082232475,
          0.4561639726161957,
          -0.07681158185005188,
          -0.2392670065164566,
          -0.6045449376106262,
          0.33473294973373413,
          -0.19043618440628052,
          0.4366986155509949,
          0.16829852759838104,
          -0.12468615919351578,
          -0.26899027824401855,
          -0.20969337224960327,
          -0.347372442483902,
          0.3122219443321228,
          0.11210834234952927,
          0.04715260490775108,
          0.1926635503768921,
          0.04816507175564766,
          -0.4220929741859436,
          0.1552349030971527,
          0.2549839913845062,
          0.025588594377040863,
          0.0973072424530983,
          0.32768872380256653,
          0.16787214577198029,
          -0.15661504864692688,
          0.06782542169094086
        ],
        [
          -0.1983281373977661,
          -0.23557506501674652,
          0.1727425754070282,
          0.005472986958920956,
          0.18295352160930634,
          0.10138033330440521,
          -0.01750195398926735,
          -0.14954935014247894,
          -0.35135480761528015,
          0.1597229242324829,
          -0.3129510283470154,
          -0.04376426339149475,
          0.11247570812702179,
          -0.19215252995491028,
          0.18517416715621948,
          -0.22111564874649048,
          -0.24785727262496948,
          -0.20731495320796967,
          -0.12112202495336533,
          0.010540375486016273,
          0.48379260301589966,
          -0.0742897093296051,
          0.2246883660554886,
          -0.9512463212013245,
          0.5091549158096313,
          -0.29544198513031006,
          0.2376151829957962,
          0.390997052192688,
          -0.7880297899246216,
          0.4098049998283386,
          -0.5572183132171631,
          -0.2907997667789459
        ],
        [
          0.19626261293888092,
          0.029401348903775215,
          0.047337889671325684,
          -0.2651538550853729,
          0.5020799040794373,
          -0.12594981491565704,
          -0.2701634168624878,
          0.05974268913269043,
          0.15047039091587067,
          -0.15069392323493958,
          0.07774212956428528,
          -0.17128290235996246,
          -0.8897786140441895,
          -0.14429984986782074,
          0.08201839029788971,
          -0.1593761295080185,
          -0.4615415036678314,
          -0.16621820628643036,
          -0.08253858983516693,
          -0.8153882026672363,
          0.026266833767294884,
          0.43560269474983215,
          0.2224186658859253,
          0.5059025883674622,
          0.2170608788728714,
          -0.26033127307891846,
          0.1654851734638214,
          -0.24409234523773193,
          -0.12431591004133224,
          0.04772906005382538,
          -0.06623315066099167,
          -0.14640110731124878
        ],
        [
          -0.16407091915607452,
          -0.19508439302444458,
          0.18304595351219177,
          0.02383127622306347,
          0.1602349728345871,
          -0.02545376680791378,
          -0.0887262374162674,
          -0.09512826800346375,
          -0.331033855676651,
          -0.2814396619796753,
          -0.1815524399280548,
          -0.33181846141815186,
          -0.1229751706123352,
          0.18248982727527618,
          0.20310987532138824,
          0.03668512776494026,
          0.20349040627479553,
          0.2034207582473755,
          0.0292360819876194,
          0.10270476341247559,
          0.2550415098667145,
          -0.06312602758407593,
          0.2600107789039612,
          -0.09405291825532913,
          0.13786855340003967,
          -0.07101695239543915,
          -0.11173266917467117,
          -0.11595311015844345,
          -0.017931947484612465,
          0.06926681846380234,
          0.32053494453430176,
          0.010500284843146801
        ],
        [
          -0.11461815237998962,
          -0.27798885107040405,
          0.4617590606212616,
          -0.1515873223543167,
          0.1428845226764679,
          0.008704102598130703,
          -0.27198365330696106,
          -0.4005727171897888,
          -0.38473591208457947,
          -0.05283936858177185,
          0.0886150598526001,
          -0.4130645990371704,
          0.0626615360379219,
          -0.24176517128944397,
          0.14211301505565643,
          -0.07524522393941879,
          0.26285016536712646,
          0.1064278781414032,
          -0.27647483348846436,
          0.08402909338474274,
          0.05966009944677353,
          0.4365673065185547,
          -0.10418426990509033,
          0.0828361064195633,
          0.34674084186553955,
          -0.5653545260429382,
          0.09145595878362656,
          -0.1925469934940338,
          -0.021243702620267868,
          -0.08359001576900482,
          0.10701540112495422,
          -0.33259132504463196
        ],
        [
          0.29170137643814087,
          -0.1265428364276886,
          -0.18636995553970337,
          0.10488034784793854,
          -0.18813744187355042,
          0.11040892452001572,
          0.08298303931951523,
          0.011639056727290154,
          -0.10654135793447495,
          -0.6344359517097473,
          0.34722059965133667,
          -0.29047343134880066,
          0.18298302590847015,
          0.2519162595272064,
          0.18658751249313354,
          -0.10867752879858017,
          0.11222813278436661,
          0.2784576714038849,
          0.0008157904376275837,
          0.1667342633008957,
          0.3053755462169647,
          -0.035496268421411514,
          -0.9276400208473206,
          0.0023182539734989405,
          0.02088102698326111,
          0.2755265533924103,
          -0.5482200980186462,
          0.24863691627979279,
          -0.057636864483356476,
          0.15941579639911652,
          0.19935284554958344,
          -0.4262511730194092
        ],
        [
          -0.12547621130943298,
          0.2985304892063141,
          0.23023374378681183,
          -0.10309574007987976,
          0.19053402543067932,
          -0.23602673411369324,
          -0.17230834066867828,
          -0.4520406424999237,
          0.05716178938746452,
          -0.3672107756137848,
          -0.1519007533788681,
          -0.10403396934270859,
          -0.15167593955993652,
          0.39856791496276855,
          0.4739755094051361,
          -0.15894809365272522,
          -0.0007538432837463915,
          0.35126668214797974,
          0.4510374069213867,
          0.38517385721206665,
          -0.0424245148897171,
          -0.3813442587852478,
          -0.0252784825861454,
          0.23427891731262207,
          -0.4441258907318115,
          -0.1928962618112564,
          -0.16783303022384644,
          0.18689598143100739,
          -0.3847963809967041,
          0.07434317469596863,
          0.23989911377429962,
          0.18735811114311218
        ],
        [
          -0.46716639399528503,
          -0.13555990159511566,
          -0.4308343827724457,
          -0.1310020089149475,
          -0.27489373087882996,
          -0.5023535490036011,
          -0.09117532521486282,
          0.45278865098953247,
          0.18449941277503967,
          -0.1126910001039505,
          -0.1994520127773285,
          -0.1507791131734848,
          0.3199765980243683,
          0.06931161135435104,
          -0.16866745054721832,
          -0.02740337699651718,
          0.22001859545707703,
          -0.06512612104415894,
          0.28486368060112,
          -0.14384619891643524,
          -0.13996785879135132,
          -0.3012857437133789,
          0.3586193919181824,
          -0.21078403294086456,
          0.0656733289361,
          0.22545568645000458,
          -0.047170255333185196,
          -0.5005160570144653,
          0.23139376938343048,
          0.004055466037243605,
          0.02573876641690731,
          -0.15233390033245087
        ],
        [
          0.3152468204498291,
          -0.21042796969413757,
          -0.024053290486335754,
          -0.041958026587963104,
          -0.025129560381174088,
          -0.15534019470214844,
          0.2966647148132324,
          0.025343993678689003,
          0.1218954473733902,
          0.11097149550914764,
          0.13269223272800446,
          -0.279041051864624,
          -0.05007478967308998,
          0.06870928406715393,
          -0.11972586065530777,
          -0.009152472950518131,
          0.22698915004730225,
          -0.2660786807537079,
          0.2043638974428177,
          -0.16669602692127228,
          0.27339115738868713,
          0.2562132179737091,
          0.2681574821472168,
          0.26124879717826843,
          0.4876425266265869,
          0.05061443895101547,
          -0.09399529546499252,
          0.38105449080467224,
          -0.3419687747955322,
          0.157212495803833,
          0.23965318500995636,
          0.22410157322883606
        ],
        [
          0.1958528608083725,
          0.07781370729207993,
          0.15374644100666046,
          -0.25287720561027527,
          0.5794833302497864,
          -0.6487685441970825,
          0.14846907556056976,
          0.16198869049549103,
          -0.04567917808890343,
          -0.20692728459835052,
          -0.29601719975471497,
          0.44080567359924316,
          -0.36442333459854126,
          -0.015480110421776772,
          -0.32128646969795227,
          -0.16956275701522827,
          -0.15190574526786804,
          0.1045321598649025,
          -0.14074157178401947,
          0.37862488627433777,
          -0.14851026237010956,
          0.24858517944812775,
          -0.32939815521240234,
          -0.314742773771286,
          -0.5858948826789856,
          -0.016858728602528572,
          -0.4029121696949005,
          -0.003044245531782508,
          0.28697121143341064,
          0.31951797008514404,
          -0.03404441103339195,
          -0.4143046736717224
        ],
        [
          0.16605395078659058,
          0.31394457817077637,
          -0.10257530212402344,
          -0.2652624249458313,
          0.05644794553518295,
          0.001974733080714941,
          -0.12057390064001083,
          -0.03930102288722992,
          -0.25756004452705383,
          -0.0018777750665321946,
          0.14179569482803345,
          0.2794632911682129,
          0.30651193857192993,
          0.1933118999004364,
          -0.356993705034256,
          -0.5989068150520325,
          0.08786047995090485,
          0.05538883060216904,
          -0.11155658215284348,
          0.11686701327562332,
          -0.25523462891578674,
          0.08708694577217102,
          0.037997812032699585,
          0.07913676649332047,
          0.08357294648885727,
          -0.40295225381851196,
          -0.41115981340408325,
          0.21356773376464844,
          -0.33860018849372864,
          -0.14812234044075012,
          0.41909462213516235,
          -0.033952467143535614
        ],
        [
          -0.16657446324825287,
          0.29045048356056213,
          0.11035919934511185,
          0.09676875174045563,
          0.09178587049245834,
          -0.1825704574584961,
          0.11917737871408463,
          0.179426372051239,
          -0.1218893975019455,
          0.021933240815997124,
          0.41988062858581543,
          -0.050618141889572144,
          -0.10375755280256271,
          -0.8466575741767883,
          -0.48525404930114746,
          0.06442661583423615,
          0.21808835864067078,
          0.18857526779174805,
          -0.5257773399353027,
          0.18632815778255463,
          0.2047780454158783,
          0.22992095351219177,
          -0.033669255673885345,
          -0.4025379419326782,
          0.11203540861606598,
          0.10645412653684616,
          0.11955153197050095,
          0.2221890687942505,
          0.3576767146587372,
          0.2519152760505676,
          0.13365352153778076,
          0.01893576979637146
        ],
        [
          -0.24678678810596466,
          -0.03108636662364006,
          -0.2161678671836853,
          -0.061812516301870346,
          -0.46310505270957947,
          0.12145600467920303,
          -0.16686144471168518,
          0.09419669955968857,
          -0.1699751317501068,
          -0.1953449249267578,
          -0.1251027137041092,
          -0.7596384286880493,
          -0.04702582582831383,
          -0.008212978020310402,
          0.04344819858670235,
          0.08833016455173492,
          0.10197306424379349,
          0.22467932105064392,
          -0.01765533536672592,
          0.3158811032772064,
          0.1436307728290558,
          0.08065132796764374,
          0.057170793414115906,
          -0.08599009364843369,
          0.01845121942460537,
          0.21268247067928314,
          -0.32879409193992615,
          0.05942891165614128,
          -0.06069781258702278,
          0.1247972846031189,
          -0.3878253698348999,
          -0.056577105075120926
        ],
        [
          -0.14427779614925385,
          0.2571532726287842,
          0.015149853192269802,
          0.08944676071405411,
          -0.060543242841959,
          0.12244683504104614,
          -0.053327854722738266,
          0.04029673710465431,
          -0.22512513399124146,
          -0.04009170085191727,
          0.03465031087398529,
          -0.32194027304649353,
          0.12404640018939972,
          0.2846369445323944,
          -0.10171957314014435,
          0.2874722182750702,
          0.02498486451804638,
          0.2912365198135376,
          -0.1039726510643959,
          -0.031206725165247917,
          0.0739658921957016,
          0.09408048540353775,
          0.17492876946926117,
          -0.08859553933143616,
          -0.1398864984512329,
          0.0140343913808465,
          0.23858052492141724,
          0.16380958259105682,
          -0.09483444690704346,
          0.25098252296447754,
          -0.29904118180274963,
          -0.21829473972320557
        ],
        [
          -0.228141188621521,
          0.16252270340919495,
          -0.15376274287700653,
          -0.23127779364585876,
          -0.3230394423007965,
          0.05700439587235451,
          -0.6241565346717834,
          -1.1768087148666382,
          0.09458588063716888,
          -0.1750214695930481,
          -0.06094007194042206,
          -0.2887647747993469,
          0.13457874953746796,
          -0.22785891592502594,
          0.4882328510284424,
          0.03534029796719551,
          -0.14261175692081451,
          0.1748158186674118,
          -0.24730975925922394,
          0.4578918516635895,
          0.46886956691741943,
          -0.18498249351978302,
          0.05436580628156662,
          -0.07750389724969864,
          -0.058009013533592224,
          0.4204254746437073,
          -0.17084075510501862,
          -0.44487833976745605,
          0.01591661386191845,
          0.10958671569824219,
          0.07175327837467194,
          -0.6702769994735718
        ],
        [
          0.035049598664045334,
          0.20481514930725098,
          0.3208695352077484,
          -0.12334850430488586,
          -0.07688349485397339,
          0.28866270184516907,
          0.14370672404766083,
          -0.11121788620948792,
          0.15328776836395264,
          0.1731107383966446,
          0.3047582805156708,
          -0.1023426279425621,
          -0.3783024251461029,
          0.014940755441784859,
          0.0813828855752945,
          0.01901501975953579,
          0.13429106771945953,
          0.05720997974276543,
          0.12398998439311981,
          0.2536705434322357,
          -0.04911857843399048,
          0.2967691123485565,
          -0.33802685141563416,
          0.3723177909851074,
          -0.24897333979606628,
          -0.2480393946170807,
          0.06790432333946228,
          0.5178425312042236,
          -0.3060452938079834,
          -0.22657108306884766,
          -0.27622339129447937,
          -0.0968487560749054
        ],
        [
          -0.19544990360736847,
          0.17345961928367615,
          0.16635771095752716,
          -0.22140710055828094,
          0.053932592272758484,
          0.5496322512626648,
          0.4671506881713867,
          0.22251711785793304,
          0.00562831899151206,
          0.1949211061000824,
          -0.10815436393022537,
          0.338624507188797,
          -0.190451979637146,
          0.2179541438817978,
          0.1425904780626297,
          0.27795422077178955,
          -0.09458665549755096,
          0.3816773295402527,
          0.23896124958992004,
          -0.08755937963724136,
          0.23257696628570557,
          -0.31822043657302856,
          -0.13353018462657928,
          -0.4457385838031769,
          -0.07483731210231781,
          0.33430466055870056,
          -0.0576324388384819,
          0.19543293118476868,
          -0.1943695843219757,
          0.2559016942977905,
          -0.4786389172077179,
          -0.3430625796318054
        ],
        [
          0.1514713019132614,
          -0.5208351612091064,
          -0.01809089630842209,
          -0.20746634900569916,
          0.1261754035949707,
          0.07073622941970825,
          0.28684720396995544,
          -0.04210076853632927,
          0.26672324538230896,
          -0.08795370906591415,
          -0.06901094317436218,
          0.06202729791402817,
          -0.18388140201568604,
          -0.16383710503578186,
          -0.6712697148323059,
          0.058981090784072876,
          -0.19644081592559814,
          -0.1436377614736557,
          -0.38304081559181213,
          -0.09996608644723892,
          0.018020905554294586,
          -0.06224147975444794,
          -0.07971226423978806,
          -0.24903081357479095,
          -0.4329802989959717,
          0.16085302829742432,
          0.07908803224563599,
          -0.34018975496292114,
          0.27791261672973633,
          0.04931194335222244,
          0.044260915368795395,
          -0.294741690158844
        ],
        [
          -0.031376853585243225,
          -0.05375862494111061,
          0.05137377232313156,
          -0.1394059658050537,
          0.3641332685947418,
          0.0820058137178421,
          0.3054277002811432,
          0.08302567899227142,
          0.04217919707298279,
          0.4606095254421234,
          -0.512753427028656,
          -0.05892155319452286,
          0.029777297750115395,
          -0.16886866092681885,
          0.16888773441314697,
          -0.34848126769065857,
          0.33151963353157043,
          -0.06783438473939896,
          -0.152985617518425,
          -0.36551520228385925,
          0.3409876227378845,
          0.1753363460302353,
          0.035210806876420975,
          0.11457852274179459,
          -0.04825440049171448,
          -0.4230279326438904,
          0.20160093903541565,
          0.25724732875823975,
          -0.19240950047969818,
          -0.2303568571805954,
          -0.030961796641349792,
          0.18273387849330902
        ],
        [
          0.056070730090141296,
          0.22628574073314667,
          -0.07684326171875,
          0.10409131646156311,
          0.16069364547729492,
          -0.22430190443992615,
          -0.3663022816181183,
          0.0470297671854496,
          -0.25801563262939453,
          -0.13233205676078796,
          0.08102719485759735,
          0.28046777844429016,
          -0.07737307250499725,
          0.006567314267158508,
          0.09943021833896637,
          -0.24047861993312836,
          -0.3684319853782654,
          0.17895974218845367,
          0.2194460779428482,
          -0.09719747304916382,
          -0.21682029962539673,
          0.43090078234672546,
          -0.30096864700317383,
          0.10931941121816635,
          0.06518159061670303,
          0.06709357351064682,
          -0.2883886396884918,
          0.406195729970932,
          0.2904621362686157,
          0.34517693519592285,
          0.1393732875585556,
          0.14766265451908112
        ],
        [
          0.1318659484386444,
          0.4276350140571594,
          0.35671570897102356,
          -0.10844630002975464,
          -0.1626512110233307,
          0.4939683675765991,
          -0.030935654416680336,
          -0.2702901363372803,
          -0.3966468870639801,
          -0.7560089826583862,
          -0.1225561797618866,
          0.05661827325820923,
          0.10700102895498276,
          0.2503213882446289,
          0.06289340555667877,
          -0.2826690077781677,
          0.0502854660153389,
          0.06596940010786057,
          -0.021328050643205643,
          -0.2058904767036438,
          0.15548625588417053,
          -0.292853444814682,
          -0.15204764902591705,
          -0.36877134442329407,
          0.021703457459807396,
          -0.2669698894023895,
          0.03904236480593681,
          -0.02056906558573246,
          0.1398206353187561,
          -0.042504534125328064,
          0.10354214906692505,
          -0.3507726490497589
        ],
        [
          -0.17678190767765045,
          -0.3106559216976166,
          -0.19959214329719543,
          -0.18453577160835266,
          -0.15825843811035156,
          -0.10850924253463745,
          -0.15601834654808044,
          -0.04275532066822052,
          -0.3266904652118683,
          -0.26692676544189453,
          -0.26442012190818787,
          0.4512963891029358,
          0.002701918128877878,
          0.5271077752113342,
          0.0824953243136406,
          0.4085976779460907,
          0.300306499004364,
          -0.22915765643119812,
          0.3013458251953125,
          -0.31050702929496765,
          -0.08658047765493393,
          0.37651506066322327,
          -0.3047808110713959,
          0.2149745374917984,
          0.05981498956680298,
          0.18925602734088898,
          0.23010499775409698,
          0.0614168606698513,
          0.5585805177688599,
          -0.06510128080844879,
          0.16027124226093292,
          -0.008007142692804337
        ],
        [
          0.18643099069595337,
          0.11230529099702835,
          -0.2771465480327606,
          -0.3094216287136078,
          -0.4345991015434265,
          -0.13296093046665192,
          0.016689009964466095,
          0.17690420150756836,
          0.39742493629455566,
          0.03611002862453461,
          -0.05207805335521698,
          -0.3156181573867798,
          0.28932157158851624,
          -0.47194474935531616,
          -0.34280332922935486,
          0.23244760930538177,
          0.13819833099842072,
          -0.4741086959838867,
          -0.32645222544670105,
          0.29445984959602356,
          0.07186711579561234,
          0.09850233793258667,
          -0.40796226263046265,
          0.32238104939460754,
          0.35298681259155273,
          0.07019571959972382,
          -0.4193727970123291,
          -0.260172039270401,
          -0.4798728823661804,
          -0.4907044768333435,
          0.05568303167819977,
          -0.15050461888313293
        ],
        [
          -0.03934480622410774,
          -7.289153290912509e-05,
          0.3531080186367035,
          -0.25244611501693726,
          0.2058478742837906,
          0.26335686445236206,
          0.10866554826498032,
          0.2701501250267029,
          -0.4628714621067047,
          0.20766979455947876,
          0.24617637693881989,
          0.02142522484064102,
          0.10564523190259933,
          -0.10318958759307861,
          0.12979435920715332,
          0.3292619287967682,
          -0.06312096118927002,
          -0.2813539505004883,
          -0.42619919776916504,
          -0.3369273543357849,
          0.27405795454978943,
          0.17435713112354279,
          0.19905684888362885,
          -0.03668977692723274,
          -0.30346137285232544,
          -0.057590119540691376,
          0.06026860326528549,
          0.13406899571418762,
          -0.057027969509363174,
          -0.003888606559485197,
          -0.1068241074681282,
          -0.1517065465450287
        ],
        [
          -0.003585830330848694,
          -0.11972584575414658,
          0.09955283254384995,
          -0.1297605335712433,
          -0.13872124254703522,
          -0.08456336706876755,
          0.2485436350107193,
          0.4068383574485779,
          -0.2516869604587555,
          -0.060444898903369904,
          0.14668384194374084,
          -0.396445095539093,
          0.15533500909805298,
          -0.04023313522338867,
          0.14493857324123383,
          -0.15733495354652405,
          -0.03399781137704849,
          0.23627741634845734,
          -0.6944155693054199,
          0.027490058913826942,
          0.06740163266658783,
          0.21148541569709778,
          -0.17078252136707306,
          -0.09869635850191116,
          -0.6457307934761047,
          0.12882164120674133,
          0.20062163472175598,
          -0.06360013782978058,
          -0.15914250910282135,
          0.1129986047744751,
          -0.3379172384738922,
          -0.23978017270565033
        ],
        [
          0.04699041694402695,
          0.09157440811395645,
          0.23933525383472443,
          0.18567824363708496,
          -0.03617328032851219,
          -0.4904695153236389,
          0.09569624811410904,
          -0.04924248903989792,
          -0.037200331687927246,
          0.16291989386081696,
          -0.04502285644412041,
          0.20673759281635284,
          0.18394331634044647,
          -0.18709534406661987,
          0.08420104533433914,
          -0.3427702784538269,
          -0.009574581868946552,
          0.3542002737522125,
          -0.017352597787976265,
          0.1532512903213501,
          -0.13652066886425018,
          -0.17389032244682312,
          0.10197398066520691,
          0.12056289613246918,
          0.17354515194892883,
          -0.4160662293434143,
          -0.18747460842132568,
          -0.24490098655223846,
          -0.024635661393404007,
          -0.7250382304191589,
          0.17694887518882751,
          0.37933382391929626
        ],
        [
          -0.34259992837905884,
          -0.4130405783653259,
          0.1987059861421585,
          0.15300196409225464,
          -0.7429752945899963,
          -0.018110373988747597,
          0.2550133168697357,
          -0.14022231101989746,
          0.22223643958568573,
          0.317388653755188,
          0.21796350181102753,
          -0.2815549969673157,
          0.12160776555538177,
          -0.21702386438846588,
          -0.3026614189147949,
          -0.023649780079722404,
          0.3259198069572449,
          -0.4085718095302582,
          0.07531268894672394,
          0.4864421486854553,
          0.06687954068183899,
          0.2791665494441986,
          -0.09919341653585434,
          -0.0946728065609932,
          0.27609479427337646,
          0.20478872954845428,
          0.27926507592201233,
          -0.2513118088245392,
          0.08399369567632675,
          -0.23916290700435638,
          0.3442096412181854,
          0.22514143586158752
        ],
        [
          0.2749558091163635,
          -0.2945743799209595,
          -0.1602538675069809,
          -0.24359285831451416,
          0.04042716324329376,
          -0.17012830078601837,
          -0.04582085460424423,
          0.18047896027565002,
          0.18308864533901215,
          -0.1471540927886963,
          -0.013988997787237167,
          0.2993488609790802,
          -0.1158612072467804,
          0.12985749542713165,
          -0.13772457838058472,
          0.2756669521331787,
          -0.3237946629524231,
          0.07118374109268188,
          -0.33860844373703003,
          0.10059677064418793,
          -0.24223007261753082,
          -0.3037109971046448,
          -0.09811291843652725,
          0.4444355368614197,
          -0.2892932593822479,
          0.19374358654022217,
          0.2037333846092224,
          0.2421754002571106,
          0.2304435670375824,
          0.023047903552651405,
          -0.03997654840350151,
          -0.06227603927254677
        ],
        [
          -0.2413536012172699,
          -0.15291860699653625,
          0.13931462168693542,
          -0.07500466704368591,
          -0.5729411840438843,
          0.08435531705617905,
          0.019964629784226418,
          -0.19532735645771027,
          -0.307485967874527,
          -0.07398156821727753,
          0.007901765406131744,
          -1.1411231756210327,
          0.08464162051677704,
          -0.10216676443815231,
          0.155691996216774,
          -0.29947924613952637,
          -0.1852802187204361,
          0.10471930354833603,
          0.09960183501243591,
          -0.1790464222431183,
          -0.15014244616031647,
          -0.062179867178201675,
          0.08039083331823349,
          0.17399808764457703,
          0.30675458908081055,
          0.416904091835022,
          -0.6666619181632996,
          -0.18646550178527832,
          -0.524021327495575,
          -0.27523189783096313,
          -0.15374113619327545,
          -0.054459188133478165
        ],
        [
          -0.010879099369049072,
          0.08038777858018875,
          0.14198683202266693,
          -0.09107743948698044,
          -0.21666744351387024,
          -0.20420032739639282,
          -0.47961288690567017,
          0.4410577118396759,
          0.21319669485092163,
          -0.04052393138408661,
          -0.08668103069067001,
          -0.04770728573203087,
          -0.2869636118412018,
          0.07558093219995499,
          0.2302137017250061,
          -0.018940871581435204,
          -0.13186118006706238,
          -0.05482775717973709,
          0.2990851104259491,
          -0.05621368810534477,
          -0.13728617131710052,
          0.198775514960289,
          -0.07566951960325241,
          0.2511911690235138,
          -0.050678301602602005,
          0.06706459075212479,
          -0.3146960139274597,
          -0.05172305926680565,
          -0.39274102449417114,
          0.4156801402568817,
          -0.20672045648097992,
          0.5265214443206787
        ],
        [
          -0.6607368588447571,
          0.2723230719566345,
          0.004017441533505917,
          0.054137926548719406,
          -0.4805821478366852,
          0.2474183738231659,
          0.21518532931804657,
          -0.10845399647951126,
          -0.2885929048061371,
          0.004163331352174282,
          -0.5429075360298157,
          -0.20582248270511627,
          0.30296972393989563,
          0.15628865361213684,
          0.2520357370376587,
          0.26771411299705505,
          0.06670733541250229,
          0.2294846475124359,
          0.16666829586029053,
          0.22291667759418488,
          0.1789766401052475,
          -0.17661254107952118,
          0.18020333349704742,
          -0.05679156631231308,
          0.15597006678581238,
          -0.23529647290706635,
          -0.002733857138082385,
          -0.3529885411262512,
          -0.08290036022663116,
          -0.20620323717594147,
          -0.06359035521745682,
          0.08829175680875778
        ],
        [
          -0.578288733959198,
          0.30260536074638367,
          -0.09008671343326569,
          -0.217665433883667,
          0.2349320501089096,
          0.2047102451324463,
          0.47661226987838745,
          0.39505621790885925,
          0.11993354558944702,
          0.03491150587797165,
          0.05533717945218086,
          0.2949301600456238,
          -0.19797587394714355,
          -0.14521010220050812,
          -0.0545659102499485,
          0.21275462210178375,
          0.05741899460554123,
          -0.3206630051136017,
          0.14519824087619781,
          -0.08503305912017822,
          0.20599378645420074,
          -0.12620899081230164,
          0.11449330300092697,
          0.4483145773410797,
          -0.02848285250365734,
          0.1914987713098526,
          -0.08953657746315002,
          0.1409386247396469,
          0.0899600014090538,
          -0.4842562973499298,
          -0.06348523497581482,
          0.4145892858505249
        ],
        [
          0.4749627113342285,
          -0.06442608684301376,
          0.05593426153063774,
          -0.2736658751964569,
          0.23660504817962646,
          -0.11809658259153366,
          -0.09419615566730499,
          -0.21553343534469604,
          -0.2379790097475052,
          -0.5436224341392517,
          -0.3357747793197632,
          0.20614413917064667,
          0.1618308126926422,
          0.03662434220314026,
          0.10416042059659958,
          -0.08648025244474411,
          -0.3096350133419037,
          -0.1726984679698944,
          -0.06590251624584198,
          -0.04452329874038696,
          -0.3259009122848511,
          0.030544694513082504,
          -0.31779569387435913,
          -0.0047568511217832565,
          0.06458442658185959,
          -0.30778083205223083,
          0.0044017150066792965,
          0.10362683236598969,
          -0.06865407526493073,
          -0.07350733131170273,
          0.06879670172929764,
          -0.07849407941102982
        ],
        [
          -0.16374292969703674,
          0.2908225953578949,
          -0.3528948128223419,
          -0.19865277409553528,
          -0.12082584202289581,
          0.18949833512306213,
          0.12729033827781677,
          0.30832692980766296,
          0.054466210305690765,
          -0.076586052775383,
          0.29354357719421387,
          -0.04861893504858017,
          0.016442395746707916,
          -0.3783631920814514,
          -0.4452407658100128,
          0.034930270165205,
          0.47591108083724976,
          -0.022538714110851288,
          -0.39930200576782227,
          -0.026821566745638847,
          -0.2366953045129776,
          0.19419948756694794,
          -0.02463269792497158,
          -0.3289695680141449,
          0.06749081611633301,
          -0.23601651191711426,
          -0.10489938408136368,
          -0.103218674659729,
          -0.20559652149677277,
          -0.06442821025848389,
          0.07313225418329239,
          -0.29285699129104614
        ],
        [
          0.042034003883600235,
          -0.16071739792823792,
          -0.30376389622688293,
          -0.1719636470079422,
          0.034906551241874695,
          0.2156350165605545,
          -0.15596431493759155,
          -0.2527322471141815,
          0.3447364270687103,
          0.3048469126224518,
          0.2846541106700897,
          0.21423926949501038,
          0.04889657348394394,
          -0.364460289478302,
          0.3294406235218048,
          -0.01844009943306446,
          0.10065402090549469,
          -0.3258676826953888,
          -0.24989371001720428,
          -0.2008630335330963,
          0.21317724883556366,
          -0.09803874790668488,
          0.094622403383255,
          -0.12662430107593536,
          -0.16305042803287506,
          -0.049452200531959534,
          -0.06016913428902626,
          0.04742037504911423,
          -0.021172024309635162,
          0.19040977954864502,
          0.04896457865834236,
          -0.10850078612565994
        ],
        [
          -0.5432443618774414,
          -0.06833156943321228,
          -0.05550703778862953,
          -0.10757293552160263,
          -0.38439735770225525,
          0.006068425718694925,
          -0.03884919360280037,
          -0.3137090504169464,
          0.34336763620376587,
          0.01415422186255455,
          0.23761208355426788,
          -0.05954354256391525,
          0.055022064596414566,
          0.449942946434021,
          -0.05617767199873924,
          0.21538105607032776,
          0.2571818232536316,
          0.3750319480895996,
          -0.13174352049827576,
          -0.15648609399795532,
          0.16781093180179596,
          -0.20430834591388702,
          0.0658392682671547,
          0.12904143333435059,
          0.1730959266424179,
          -0.4775197505950928,
          -0.0567614771425724,
          0.19631560146808624,
          0.4288034737110138,
          0.3969661295413971,
          0.22018541395664215,
          -0.4843437671661377
        ],
        [
          -0.09284574538469315,
          -0.2746012508869171,
          -0.0997593030333519,
          -0.11600825190544128,
          0.166609525680542,
          -0.07892291992902756,
          -0.22199594974517822,
          -0.07467467337846756,
          -0.233230859041214,
          -0.18888820707798004,
          0.2590319812297821,
          0.3746466338634491,
          -0.1352284848690033,
          0.17344115674495697,
          0.48840346932411194,
          0.0005328675033524632,
          -0.08398568630218506,
          -0.2773679196834564,
          -0.06213032826781273,
          -0.002565113129094243,
          -0.05184981971979141,
          -0.39809155464172363,
          -0.08906765282154083,
          -0.06921840459108353,
          0.08769692480564117,
          -0.3686045706272125,
          0.1029672771692276,
          -0.06354378163814545,
          0.009119484573602676,
          -0.08323276787996292,
          0.44511842727661133,
          0.08573389053344727
        ],
        [
          -0.29532989859580994,
          -0.18388350307941437,
          0.13511130213737488,
          0.060792017728090286,
          0.18033535778522491,
          -0.1333008110523224,
          -0.19967681169509888,
          0.13991574943065643,
          0.1964673399925232,
          -0.08361848443746567,
          -0.09011101722717285,
          0.2503868043422699,
          -0.337434321641922,
          -0.04059288650751114,
          0.10413472354412079,
          -0.03132940083742142,
          -0.005490372888743877,
          0.19969365000724792,
          -0.2374473661184311,
          -0.1241259053349495,
          0.25976040959358215,
          0.06533361226320267,
          0.3941192924976349,
          0.002235041232779622,
          -0.17595833539962769,
          -0.0557229220867157,
          -0.07357725501060486,
          -0.12734444439411163,
          0.15412144362926483,
          0.25471553206443787,
          0.19950896501541138,
          0.22896456718444824
        ],
        [
          0.37796154618263245,
          -0.08551771193742752,
          0.024698715656995773,
          0.1332806497812271,
          -0.036755580455064774,
          0.25382041931152344,
          -0.1212020069360733,
          0.17024311423301697,
          -0.11089251935482025,
          -0.01839309372007847,
          0.16098055243492126,
          -0.4511127471923828,
          0.232375830411911,
          -0.24913229048252106,
          -0.020844854414463043,
          0.11487537622451782,
          -0.26126110553741455,
          -0.03868069872260094,
          -0.07165894657373428,
          0.2867957353591919,
          -0.1898016333580017,
          -0.01300820428878069,
          0.16467878222465515,
          -0.36526036262512207,
          -0.1142842099070549,
          -0.12514816224575043,
          -0.1578119397163391,
          0.35769811272621155,
          -0.5072479844093323,
          -0.010987929999828339,
          -0.1698141247034073,
          -0.058453693985939026
        ],
        [
          0.128749817609787,
          0.053694020956754684,
          -0.2992766797542572,
          0.16077281534671783,
          -0.002535570878535509,
          0.014969316311180592,
          -0.1725846529006958,
          0.49404725432395935,
          0.24792689085006714,
          0.3647444248199463,
          -0.48817363381385803,
          -0.19710806012153625,
          0.014204868115484715,
          0.06180867925286293,
          -0.36555325984954834,
          0.021057134494185448,
          -0.03556937351822853,
          0.26425158977508545,
          0.24753934144973755,
          -0.20745284855365753,
          -0.2823581099510193,
          0.1441533863544464,
          -0.13229481875896454,
          -0.21023258566856384,
          0.48528411984443665,
          -0.45363980531692505,
          -0.11355602741241455,
          0.2242511361837387,
          -0.2557618319988251,
          -6.568936805706471e-05,
          -0.2318679392337799,
          0.1954641342163086
        ],
        [
          -0.29690074920654297,
          0.32725271582603455,
          0.30096563696861267,
          0.1910291314125061,
          -0.14351405203342438,
          -0.22906054556369781,
          -0.051969315856695175,
          -0.11137837916612625,
          0.10643710941076279,
          -0.0367409773170948,
          0.140417218208313,
          0.32444846630096436,
          -0.23614346981048584,
          0.1939329355955124,
          0.16648206114768982,
          -0.20528937876224518,
          -0.36204954981803894,
          0.21471695601940155,
          -0.2848793566226959,
          0.09360712766647339,
          0.3711380660533905,
          0.17001767456531525,
          -0.3692503869533539,
          0.37212222814559937,
          -0.3086250424385071,
          -0.06411369144916534,
          -0.15027646720409393,
          -0.19804660975933075,
          0.288230299949646,
          -0.2815568149089813,
          -0.08147504180669785,
          0.17275315523147583
        ]
      ],
      "b": [
        0.2382662147283554,
        0.41350874304771423,
        0.025169668719172478,
        -0.032526180148124695,
        0.42118629813194275,
        0.06319346278905869,
        -0.14093606173992157,
        0.3781884014606476,
        0.24228538572788239,
        0.047993253916502,
        0.17632170021533966,
        0.06768646836280823,
        -0.01595354452729225,
        -0.1536048948764801,
        -0.05577396601438522,
        0.21463188529014587,
        0.018795475363731384,
        0.0705377385020256,
        0.10400251299142838,
        -0.00614148611202836,
        0.02462075464427471,
        0.1567297875881195,
        -0.06475811451673508,
        0.049288276582956314,
        0.10781089961528778,
        0.1693890541791916,
        0.18559429049491882,
        0.15160933136940002,
        0.17434105277061462,
        0.20982643961906433,
        0.16386190056800842,
        0.07447008043527603
      ]
    },
    {
      "W": [
        [
          -0.3013938367366791,
          -0.5093673467636108,
          0.2914126515388489,
          -0.45098549127578735,
          0.05957357585430145,
          0.3749563992023468,
          -0.5784911513328552,
          0.09198074787855148,
          -0.47678622603416443,
          0.0909300372004509,
          0.5207451581954956,
          0.4365329146385193,
          0.11933731287717819,
          0.196977898478508,
          -0.3769671320915222,
          -0.02808844856917858
        ],
        [
          0.2604489028453827,
          0.5467594861984253,
          -0.16775496304035187,
          0.23276957869529724,
          0.2018163800239563,
          0.22165976464748383,
          -0.25736385583877563,
          0.1426900029182434,
          -0.003453892422839999,
          0.06858517974615097,
          0.5751575231552124,
          0.07792501896619797,
          -0.21666736900806427,
          0.21586857736110687,
          0.37190601229667664,
          0.49273809790611267
        ],
        [
          -0.45269283652305603,
          0.26088035106658936,
          -0.11040130257606506,
          0.06972803920507431,
          0.144065260887146,
          0.27629896998405457,
          0.1661580204963684,
          0.002924444619566202,
          -0.8122513294219971,
          -0.14827477931976318,
          0.08892136067152023,
          -0.1104583740234375,
          -0.22887183725833893,
          0.2805412709712982,
          -0.41261914372444153,
          0.1607493758201599
        ],
        [
          0.14356012642383575,
          0.32301226258277893,
          -0.24298575520515442,
          -0.1813706010580063,
          0.334783673286438,
          0.3392256796360016,
          0.24940964579582214,
          0.15972812473773956,
          0.07749292999505997,
          0.12241407483816147,
          0.1707218438386917,
          -0.2899441719055176,
          0.2877509593963623,
          -0.2784397006034851,
          -0.34498298168182373,
          0.11771010607481003
        ],
        [
          -0.06609217077493668,
          -1.202069878578186,
          0.10441163182258606,
          0.04341652989387512,
          -0.3840819001197815,
          0.1393333077430725,
          0.01593477465212345,
          0.21255087852478027,
          0.021501848474144936,
          -0.5647585988044739,
          0.5521794557571411,
          0.5317840576171875,
          -0.19458898901939392,
          -0.0843147486448288,
          0.15594883263111115,
          -0.18999598920345306
        ],
        [
          0.4526473581790924,
          -0.3298715353012085,
          -0.18715734779834747,
          0.5449341535568237,
          -0.8450545072555542,
          -0.5276501178741455,
          -0.4790312349796295,
          0.15351469814777374,
          0.20496688783168793,
          -0.2584570050239563,
          -0.03164779767394066,
          -0.006551850121468306,
          -0.17006993293762207,
          -0.16664449870586395,
          0.2696034610271454,
          -0.3329215347766876
        ],
        [
          0.2677241563796997,
          -0.032014816999435425,
          -0.26349079608917236,
          0.23499998450279236,
          -0.8112286925315857,
          -0.6961914300918579,
          -0.06486106663942337,
          0.2877577841281891,
          0.2652706205844879,
          -0.1203620433807373,
          -0.0026902761310338974,
          0.06278261542320251,
          0.2550951838493347,
          -0.420627623796463,
          0.34954628348350525,
          -0.36735230684280396
        ],
        [
          0.13320888578891754,
          -0.3038996160030365,
          0.17056365311145782,
          0.16246716678142548,
          -0.44385862350463867,
          0.6187467575073242,
          -0.19902919232845306,
          0.10656172782182693,
          0.3424184024333954,
          0.24114298820495605,
          -0.13782954216003418,
          0.31093358993530273,
          0.21273259818553925,
          0.5031590461730957,
          0.26509889960289,
          0.20899435877799988
        ],
        [
          0.13917899131774902,
          -0.19899491965770721,
          -0.5557374358177185,
          0.41740500926971436,
          0.338964581489563,
          0.2507650852203369,
          0.2655078172683716,
          0.2105240374803543,
          0.4031113088130951,
          -0.2482607215642929,
