{
  "features": [
    "Ground_Heat_Flux_surface",
    "Plant_Canopy_Surface_Water_surface",
    "Temperature_surface",
    "Vegetation_Type_surface",
    "Vegetation_surface",
    "pdsi",
    "precipitation",
    "tmax",
    "tmin",
    "u-component_of_wind_hybrid",
    "v-component_of_wind_hybrid",
    "month",
    "doy"
  ],
  "scaler_mean": [
    -3.4795537410213306,
    0.04347341709846788,
    294.34189769478724,
    6.363911391678766,
    54.593273080358536,
    -1.9961191844896826,
    12.83667985550672,
    28.31729432855691,
    12.611572179434551,
    0.4603493950235788,
    0.5485395423146662,
    7.979011564016913,
    227.13141788383584
  ],
  "scaler_scale": [
    47.556490443682975,
    0.1189327799494962,
    9.624742478437522,
    3.2607513118944937,
    23.392397591788338,
    3.218056367907767,
    50.44516135751277,
    6.009804978446607,
    6.416752473832575,
    2.1840246660276517,
    2.318997561486091,
    1.2426481670638592,
    38.34803158297843
  ],
  "layers": [
    {
      "W": [
        [
          0.24297451972961426,
          0.39343076944351196,
          0.19912193715572357,
          -0.019278472289443016,
          -0.3217567801475525,
          0.00796584878116846,
          0.7773267030715942,
          -0.15302765369415283,
          0.017438877373933792,
          -0.285762757062912,
          -0.20715294778347015,
          0.30972424149513245,
          -0.22024258971214294,
          0.3847336173057556,
          0.1610402762889862,
          0.121976338326931,
          0.19607582688331604,
          -0.10472670942544937,
          0.11131878942251205,
          0.06107702851295471,
          -0.6533707976341248,
          -0.2247777283191681,
          0.46479159593582153,
          0.032346341758966446,
          -0.26628103852272034,
          -0.05377935245633125,
          -0.5984846353530884,
          -0.1292133629322052,
          0.978590190410614,
          -0.13787271082401276,
          0.0888994112610817,
          -0.1272898018360138,
          -0.06681078672409058,
          -0.014532437548041344,
          0.10465272516012192,
          -0.07907986640930176,
          0.06075047329068184,
          -0.11958055943250656,
          0.40499964356422424,
          0.19195008277893066,
          0.11665939539670944,
          -0.03925258666276932,
          0.3119563162326813,
          -0.07679148018360138,
          -0.11611416190862656,
          0.5016881823539734,
          0.08705143630504608,
          -0.005870808847248554,
          0.29802629351615906,
          -0.08275225013494492,
          0.08485642075538635,
          0.13996674120426178,
          0.2198866307735443,
          -0.08462385088205338,
          0.4929426908493042,
          0.012368287891149521,
          0.23426027595996857,
          0.47277137637138367,
          -0.08669661730527878,
          -0.0013476423919200897,
          0.41072091460227966,
          0.12302624434232712,
          -0.11063221842050552,
          -0.0473129041492939
        ],
        [
          -0.2012481987476349,
          0.1863371878862381,
          0.37673842906951904,
          -0.04116536304354668,
          0.23346976935863495,
          0.17226558923721313,
          0.19978658854961395,
          0.34533068537712097,
          0.024380328133702278,
          0.19078296422958374,
          -0.028158564120531082,
          0.0907004103064537,
          0.00421458575874567,
          -0.2044444978237152,
          0.265226274728775,
          -0.09598765522241592,
          -0.11896083503961563,
          0.13853725790977478,
          0.2115718424320221,
          -0.06934645771980286,
          -0.020072080194950104,
          0.293683797121048,
          0.04696403071284294,
          0.05921785905957222,
          -0.330607146024704,
          -0.009960099123418331,
          0.10813174396753311,
          -0.3465083837509155,
          -0.08595097064971924,
          -0.11952124536037445,
          0.14811544120311737,
          0.34818392992019653,
          -0.022509830072522163,
          -0.08125310391187668,
          -0.01324702613055706,
          -0.14508254826068878,
          0.23440654575824738,
          0.037716951221227646,
          -0.07508042454719543,
          0.004689228255301714,
          -0.20928777754306793,
          0.23294927179813385,
          0.054225146770477295,
          -0.15512676537036896,
          -0.3690466284751892,
          0.08664455264806747,
          -0.15651264786720276,
          -0.13475725054740906,
          0.07211674004793167,
          0.07601375877857208,
          0.2361433207988739,
          0.10494716465473175,
          -0.2838743031024933,
          0.07175090163946152,
          0.15257525444030762,
          -0.07572794705629349,
          0.05343779921531677,
          -0.041640765964984894,
          0.0516691580414772,
          -0.027030766010284424,
          0.12183541804552078,
          0.2674739956855774,
          0.04212746396660805,
          0.1544373482465744
        ],
        [
          -0.3244171738624573,
          0.025363311171531677,
          0.0639251321554184,
          -0.0803927332162857,
          -0.2499639242887497,
          -0.0173491258174181,
          -0.0951693132519722,
          -0.1630261391401291,
          -0.19742169976234436,
          -2.1308049326762557e-05,
          0.2855353057384491,
          0.4105088710784912,
          -0.12109661102294922,
          0.07182550430297852,
          -0.163437619805336,
          0.07862231880426407,
          0.08210685849189758,
          0.25517627596855164,
          -0.12599028646945953,
          0.04935282841324806,
          -0.009742247872054577,
          0.2637545168399811,
          -0.4072607755661011,
          -0.027002671733498573,
          0.07431361824274063,
          -0.17952203750610352,
          0.26379504799842834,
          -0.16597795486450195,
          -0.2731521725654602,
          -0.15150050818920135,
          0.23991940915584564,
          0.01034981943666935,
          -0.13023950159549713,
          -0.11582758277654648,
          -0.2637538015842438,
          0.08461462706327438,
          0.21574454009532928,
          0.10200205445289612,
          -0.18902450799942017,
          0.13504347205162048,
          0.3349495232105255,
          -0.11225903034210205,
          0.16319739818572998,
          -0.07043848186731339,
          -0.13640926778316498,
          -0.21223890781402588,
          0.057539988309144974,
          0.322008341550827,
          0.0660901591181755,
          0.06281778216362,
          0.2876525819301605,
          -0.11463025212287903,
          0.06409954279661179,
          -0.32177162170410156,
          0.4150550663471222,
          0.008050801232457161,
          0.2550269663333893,
          0.33176201581954956,
          -0.3876259922981262,
          -0.4175858795642853,
          0.007673374377191067,
          -0.1334884911775589,
          -0.4589328467845917,
          -0.3439648449420929
        ],
        [
          0.26034748554229736,
          -0.4100877344608307,
          0.015375031158328056,
          0.4154421091079712,
          0.05157232657074928,
          -0.3792451322078705,
          -0.008577995002269745,
          -0.39521217346191406,
          -0.048506781458854675,
          0.11739739775657654,
          -0.16377447545528412,
          0.2861231863498688,
          -0.1823352873325348,
          0.21913884580135345,
          -0.3744661808013916,
          0.40775570273399353,
          -0.017687002196907997,
          -0.49321117997169495,
          0.5554693937301636,
          -0.2081514149904251,
          0.11625926941633224,
          0.11927888542413712,
          0.31479474902153015,
          0.38643404841423035,
          -0.059332381933927536,
          0.6145015954971313,
          0.10954992473125458,
          0.17156924307346344,
          0.015779323875904083,
          0.5342159867286682,
          0.29750630259513855,
          -0.4141916334629059,
          0.6159279942512512,
          0.4267091155052185,
          0.05429695174098015,
          0.1358788013458252,
          0.34753572940826416,
          0.30553147196769714,
          -0.12322623282670975,
          -0.30204957723617554,
          0.29702600836753845,
          0.8497873544692993,
          0.08352017402648926,
          -0.12342457473278046,
          -0.39787453413009644,
          -0.009829129092395306,
          0.1540919542312622,
          -0.27493220567703247,
          -0.11514206230640411,
          -0.14411914348602295,
          -0.02308494970202446,
          0.1622486710548401,
          -0.1278865784406662,
          -0.15260842442512512,
          0.2223321497440338,
          0.9190611839294434,
          -0.49034035205841064,
          -0.33001482486724854,
          0.09281434863805771,
          -0.4437163770198822,
          0.30785900354385376,
          -0.27630332112312317,
          0.059086840599775314,
          0.2342410683631897
        ],
        [
          -0.04641414433717728,
          -0.41403743624687195,
          0.1418158859014511,
          0.3841102421283722,
          -0.24860061705112457,
          -0.20127739012241364,
          0.14064326882362366,
          0.568077802658081,
          -0.04144202545285225,
          0.12625162303447723,
          -0.30330339074134827,
          0.27033713459968567,
          -0.1235758364200592,
          -0.2551051378250122,
          -0.3977240324020386,
          0.3054957389831543,
          0.30011916160583496,
          0.34495809674263,
          0.4960811734199524,
          0.0754561796784401,
          -0.04096652567386627,
          0.13288162648677826,
          0.07445506006479263,
          0.6829096078872681,
          -0.08519011735916138,
          -0.012000108137726784,
          0.21739649772644043,
          0.19100865721702576,
          0.10442044585943222,
          0.08220890164375305,
          -0.3674989640712738,
          -0.13833393156528473,
          -0.36182036995887756,
          0.14218054711818695,
          0.5417507290840149,
          0.3186396658420563,
          -0.13506285846233368,
          -0.25005075335502625,
          -0.018316982313990593,
          0.046679429709911346,
          0.39736682176589966,
          -0.3708306849002838,
          -0.2038479447364807,
          0.4592301547527313,
          -0.2430819720029831,
          -0.4197881817817688,
          0.0634387880563736,
          0.08091322332620621,
          0.163812518119812,
          0.4023410975933075,
          0.19183358550071716,
          -0.2951018810272217,
          -0.09855223447084427,
          0.4008466601371765,
          -0.12470296025276184,
          0.37650734186172485,
          -0.26559945940971375,
          0.20292529463768005,
          0.3578468859195709,
          -0.4856271743774414,
          -0.3400537669658661,
          -0.16002123057842255,
          -0.5432001352310181,
          -0.16704973578453064
        ],
        [
          -0.0367564894258976,
          -0.05675294250249863,
          -0.7856932878494263,
          -0.6014285683631897,
          0.19912056624889374,
          0.21298392117023468,
          0.07896377146244049,
          -0.02957884408533573,
          0.3075996935367584,
          -0.14312471449375153,
          -0.06541859358549118,
          0.32015231251716614,
          0.12621337175369263,
          0.07179354876279831,
          -0.6111626625061035,
          -0.8061236143112183,
          0.2756926715373993,
          0.2262434959411621,
          -0.03757058456540108,
          0.3552504777908325,
          0.1646474301815033,
          -0.12002068758010864,
          0.46874868869781494,
          -0.23682056367397308,
          0.36429738998413086,
          -0.4142219126224518,
          0.36305946111679077,
          -0.5137604475021362,
          0.1418527513742447,
          -0.564664900302887,
          -0.08440703898668289,
          -0.6927614212036133,
          0.5177006721496582,
          -0.036390066146850586,
          -0.06095940247178078,
          0.79960036277771,
          -0.20685359835624695,
          -0.3434693217277527,
          -0.09886235743761063,
          -0.11082100123167038,
          -0.33168330788612366,
          0.6091317534446716,
          -0.12460245192050934,
          -0.20007243752479553,
          -0.11502401530742645,
          -0.15003804862499237,
          -0.24983833730220795,
          -0.6918318867683411,
          0.14181818068027496,
          -0.10903960466384888,
          0.04764335975050926,
          -0.38933253288269043,
          -0.2339545488357544,
          -0.5621002912521362,
          0.11148153245449066,
          0.05889140069484711,
          -0.0699533000588417,
          -0.09414421021938324,
          0.28674212098121643,
          0.0644475668668747,
          0.22392389178276062,
          -0.1651993691921234,
          0.1643483191728592,
          0.3357842266559601
        ],
        [
          -0.6405879259109497,
          -0.09935927391052246,
          0.23523381352424622,
          0.13551916182041168,
          0.44007608294487,
          0.3618681728839874,
          -0.11107595264911652,
          -0.05357048287987709,
          0.28010278940200806,
          0.3376998007297516,
          -1.0103915929794312,
          0.09840378910303116,
          -0.1857437789440155,
          0.42995136976242065,
          0.3346056044101715,
          0.5101612210273743,
          0.06010226160287857,
          -0.2652600109577179,
          -0.3214417099952698,
          0.2195916622877121,
          -0.07180416584014893,
          -0.37164250016212463,
          0.18750646710395813,
          0.07085373252630234,
          -0.38930606842041016,
          -0.2505020797252655,
          0.31877678632736206,
          0.318927139043808,
          0.10411178320646286,
          -0.1615171879529953,
          0.4310120642185211,
          -0.35639122128486633,
          0.0663333609700203,
          -0.42107051610946655,
          0.10086609423160553,
          0.04337218776345253,
          -0.09821590781211853,
          0.018209019675850868,
          -0.3293379843235016,
          0.1049870178103447,
          -0.17454245686531067,
          0.15089039504528046,
          -0.11105755716562271,
          0.2742232382297516,
          -0.4868331849575043,
          0.19585861265659332,
          0.1313387155532837,
          0.09311774373054504,
          -0.07920294255018234,
          0.0850866287946701,
          0.0526418536901474,
          -0.4614188075065613,
          0.2381226271390915,
          0.1646082103252411,
          0.01737183704972267,
          -0.1497281938791275,
          0.15680384635925293,
          -0.17286185920238495,
          -0.05855683982372284,
          -0.04986768960952759,
          -0.04599933326244354,
          0.12440929561853409,
          -0.20238901674747467,
          0.24236761033535004
        ],
        [
          -0.05607280507683754,
          0.13011768460273743,
          0.15288607776165009,
          0.07087323069572449,
          0.08765409886837006,
          -0.4610297977924347,
          -0.08129920810461044,
          -0.37458568811416626,
          0.06896868348121643,
          0.23367048799991608,
          -0.32644397020339966,
          -0.031570013612508774,
          0.003413127502426505,
          -0.07107844203710556,
          0.06628726422786713,
          0.16523794829845428,
          0.08474326133728027,
          0.18039026856422424,
          -0.19618229568004608,
          -0.13716240227222443,
          -0.06729800254106522,
          0.05521097406744957,
          0.18357636034488678,
          0.027089091017842293,
          0.135017991065979,
          0.03549017012119293,
          -0.12772682309150696,
          -0.31775718927383423,
          0.17573963105678558,
          -0.08850182592868805,
          -0.06726856529712677,
          0.05204690992832184,
          -0.07989674061536789,
          0.14967675507068634,
          -0.23724901676177979,
          0.10137058794498444,
          0.25342661142349243,
          0.05082111060619354,
          -0.1429251879453659,
          0.0650402307510376,
          0.06024732068181038,
          -0.07257422059774399,
          0.15799428522586823,
          -0.495352566242218,
          0.030695656314492226,
          0.14144304394721985,
          -0.4187735319137573,
          0.09347917884588242,
          0.4734536409378052,
          -0.016681896522641182,
          -0.09467823058366776,
          0.06621837615966797,
          0.14384645223617554,
          -0.13365978002548218,
          0.026487428694963455,
          0.04602929577231407,
          -0.14288145303726196,
          0.06963202357292175,
          0.026093803346157074,
          -0.2469828873872757,
          -0.2504081130027771,
          0.003049788996577263,
          -0.012306095100939274,
          0.009303092025220394
        ],
        [
          0.14199085533618927,
          -0.0030653865542262793,
          0.2853683829307556,
          -0.2716807425022125,
          -0.27958929538726807,
          -0.23179203271865845,
          0.17833028733730316,
          0.16397014260292053,
          -0.43978604674339294,
          0.2521667182445526,
          0.14236293733119965,
          0.4107854664325714,
          0.2001940757036209,
          0.27240243554115295,
          0.039237894117832184,
          -0.09283491969108582,
          -0.17731022834777832,
          -0.5372118353843689,
          0.10755189508199692,
          -0.06939853727817535,
          -0.03407050296664238,
          -0.06586745381355286,
          -0.1809949278831482,
          0.03926820680499077,
          0.07311654835939407,
          -0.6799768209457397,
          0.16829456388950348,
          0.4159398078918457,
          0.1888876110315323,
          -0.08368317782878876,
          -0.4846733808517456,
          0.004852016922086477,
          -0.009661785326898098,
          0.07436566799879074,
          0.2712611258029938,
          0.04473067447543144,
          -0.7051301002502441,
          -0.1680489331483841,
          0.10467961430549622,
          -0.20399309694766998,
          0.06684048473834991,
          -0.09174159169197083,
          -0.12964333593845367,
          0.08798256516456604,
          0.10173437744379044,
          0.44638192653656006,
          -0.1981152892112732,
          -0.12699000537395477,
          -0.3652239143848419,
          -0.20834782719612122,
          0.28779980540275574,
          -0.42049041390419006,
          -0.12985271215438843,
          0.302494615316391,
          0.01459613349288702,
          -0.007065399084240198,
          -0.47604018449783325,
          -0.19908058643341064,
          -0.01905086822807789,
          -0.2426736056804657,
          0.2126222848892212,
          0.28677991032600403,
          -0.1895199567079544,
          -0.06680822372436523
        ],
        [
          -0.09102359414100647,
          0.03217602148652077,
          -0.07970913499593735,
          -0.0325629897415638,
          -0.12854473292827606,
          -0.11803850531578064,
          -0.05448363348841667,
          0.004485887009650469,
          0.1294998973608017,
          -0.06823872774839401,
          -0.0035651610232889652,
          -0.1834433674812317,
          -0.34719720482826233,
          0.3216906487941742,
          0.22847317159175873,
          0.17563411593437195,
          -0.3123548924922943,
          0.00514256302267313,
          -0.19008299708366394,
          0.05308002606034279,
          0.1435147225856781,
          -0.07101583480834961,
          0.11002226173877716,
          0.0643840804696083,
          -0.1286630630493164,
          0.011095425114035606,
          0.06539113074541092,
          -0.3187747895717621,
          -0.04895932972431183,
          0.16199623048305511,
          -0.40992316603660583,
          0.0007871240377426147,
          -0.014283649623394012,
          0.055052511394023895,
          0.06561034917831421,
          0.059136323630809784,
          -0.0539851151406765,
          0.02174711786210537,
          0.1268620491027832,
          0.2716207802295685,
          0.14818911254405975,
          0.0022342412266880274,
          -0.18513697385787964,
          -0.12607672810554504,
          -0.10072868317365646,
          0.1158134862780571,
          -0.14944340288639069,
          0.02168649435043335,
          -0.05051885172724724,
          -0.31094327569007874,
          -0.23209701478481293,
          0.20671173930168152,
          -0.48784664273262024,
          0.015348468907177448,
          0.016004664823412895,
          0.022264579311013222,
          -0.09601732343435287,
          -0.08132252097129822,
          0.1088121235370636,
          -0.09545798599720001,
          -0.03438607603311539,
          0.2066560536623001,
          -0.02494465559720993,
          0.2489069402217865
        ],
        [
          -0.19469262659549713,
          0.027967587113380432,
          -0.11785798519849777,
          0.06971330940723419,
          -0.2237117439508438,
          0.21397532522678375,
          -0.028803987428545952,
          0.07365816831588745,
          -0.07206626981496811,
          0.6372678279876709,
          -0.11588376760482788,
          -0.08824160695075989,
          -0.3558749556541443,
          0.05786911025643349,
          -0.39262232184410095,
          0.07714637368917465,
          -0.0799068883061409,
          0.057582054287195206,
          -0.27991920709609985,
          -0.09752143919467926,
          0.045625392347574234,
          -0.12008295953273773,
          0.24197553098201752,
          0.023465024307370186,
          -0.10871158540248871,
          -0.11413318663835526,
          -0.14660239219665527,
          0.05498461797833443,
          0.05506374314427376,
          0.027464456856250763,
          0.07983133941888809,
          -0.1127178743481636,
          0.3470473289489746,
          0.0336715392768383,
          -0.10477562993764877,
          -0.21295538544654846,
          0.29200759530067444,
          -0.1826164573431015,
          0.19625523686408997,
          0.019705206155776978,
          0.353867769241333,
          0.008375960402190685,
          0.06053406000137329,
          -0.08031328022480011,
          0.13080184161663055,
          -0.08971519023180008,
          -0.34051305055618286,
          0.15926629304885864,
          0.054778628051280975,
          0.22889463603496552,
          0.09136681258678436,
          -0.07314366102218628,
          0.48049014806747437,
          -0.1596508026123047,
          -0.06100223585963249,
          -0.007204314228147268,
          0.036656953394412994,
          0.13822318613529205,
          -0.4087788760662079,
          -0.014252743683755398,
          0.1306518167257309,
          -0.38734936714172363,
          0.3734937012195587,
          -0.32582736015319824
        ],
        [
          -0.03404415771365166,
          0.14583450555801392,
          -0.004033565521240234,
          -0.0702681690454483,
          -0.1686229556798935,
          -0.27773135900497437,
          0.12195608764886856,
          0.12604771554470062,
          -0.29508453607559204,
          0.08533644676208496,
          -0.1668899804353714,
          0.3568094074726105,
          0.4029989540576935,
          0.11083641648292542,
          -0.06467389315366745,
          0.17515252530574799,
          0.013921359553933144,
          -0.16761654615402222,
          -0.23427769541740417,
          -0.21385414898395538,
          0.21180960536003113,
          0.13012507557868958,
          0.018920820206403732,
          0.24466553330421448,
          -0.21719473600387573,
          0.08063478022813797,
          0.007333013229072094,
          -0.1997825801372528,
          0.13553813099861145,
          -0.13995538651943207,
          -0.11355678737163544,
          0.13074703514575958,
          -0.030550209805369377,
          -0.28551530838012695,
          0.1852121651172638,
          0.27843528985977173,
          0.26615604758262634,
          -0.11158277094364166,
          -0.38422533869743347,
          0.05250028520822525,
          -0.48232772946357727,
          -0.1134326234459877,
          0.3490235209465027,
          0.3540445864200592,
          -0.13119910657405853,
          -0.221546471118927,
          0.2073565274477005,
          0.4784533977508545,
          0.42289406061172485,
          0.1797686219215393,
          -0.3564170300960541,
          -0.0013430677354335785,
          0.061252858489751816,
          0.07729213684797287,
          -0.11801479011774063,
          -0.3963249921798706,
          0.2851581871509552,
          -0.13194231688976288,
          0.2529788911342621,
          0.13179823756217957,
          -0.08902539312839508,
          -0.19513750076293945,
          0.014724249951541424,
          0.036719392985105515
        ],
        [
          -0.04526377469301224,
          -0.10454966872930527,
          0.17914113402366638,
          0.017159296199679375,
          -0.01710416190326214,
          -0.35082656145095825,
          0.0552118644118309,
          0.40947243571281433,
          0.763191282749176,
          0.0032558308448642492,
          -0.008188172243535519,
          0.24082474410533905,
          0.24792751669883728,
          0.06023263558745384,
          -0.027038699015975,
          -0.1914111077785492,
          0.24942685663700104,
          -0.10538505017757416,
          0.20101411640644073,
          -0.739936888217926,
          -0.02576831355690956,
          0.39682134985923767,
          -0.23151081800460815,
          0.3769674301147461,
          -0.07482276111841202,
          0.27812671661376953,
          0.4662802517414093,
          -0.09472217410802841,
          -0.23779559135437012,
          0.18733972311019897,
          -0.4077790081501007,
          0.2837110459804535,
          0.15848182141780853,
          -0.22941181063652039,
          -0.14258326590061188,
          0.23179855942726135,
          -0.0628482922911644,
          -0.3882150650024414,
          -0.21878261864185333,
          -0.4792121648788452,
          0.2232535481452942,
          -0.09667953103780746,
          0.18226772546768188,
          0.31351375579833984,
          -0.24120250344276428,
          0.336047887802124,
          -0.16671937704086304,
          0.10698489844799042,
          -0.36457136273384094,
          -0.39043179154396057,
          -0.5776803493499756,
          0.08110707998275757,
          0.021546432748436928,
          0.1889847218990326,
          -0.48840048909187317,
          -0.2016259729862213,
          -0.07107827067375183,
          -0.2001403570175171,
          -0.3558751046657562,
          -0.05807636305689812,
          0.2571222186088562,
          -0.30732694268226624,
          -0.19827856123447418,
          0.285977303981781
        ]
      ],
      "b": [
        -0.05054957792162895,
        0.16174088418483734,
        -0.34537026286125183,
        -0.28851550817489624,
        -0.001192506984807551,
        -0.045005783438682556,
        -0.10346197336912155,
        -0.17963866889476776,
        -0.1803656369447708,
        -0.39919304847717285,
        0.15838494896888733,
        0.02847832255065441,
        -0.014185826294124126,
        0.20217734575271606,
        -0.17596085369586945,
        -0.09641200304031372,
        0.21830444037914276,
        -0.2062733769416809,
        0.12094433605670929,
        -0.04101577401161194,
        0.15674878656864166,
        -0.11755235493183136,
        0.1277245581150055,
        0.20476315915584564,
        0.12207548320293427,
        -0.1426078975200653,
        0.012099533341825008,
        -0.1299307495355606,
        0.1461527943611145,
        -0.3536838889122009,
        -0.0011727063683792949,
        -0.2522348165512085,
        0.0506797730922699,
        -0.12852147221565247,
        0.31734079122543335,
        0.12674909830093384,
        0.10078904032707214,
        -0.09019419550895691,
        -0.01972123421728611,
        0.2009197622537613,
        0.03222550079226494,
        -0.12469182163476944,
        0.18753963708877563,
        0.01693679764866829,
        0.037846021354198456,
        0.025600258260965347,
        0.018547676503658295,
        0.15176112949848175,
        0.0974954292178154,
        0.11312520503997803,
        -0.4437807500362396,
        -0.008476199582219124,
        -0.3471982777118683,
        -0.2414332777261734,
        0.09459089487791061,
        -0.14632545411586761,
        -0.2151116132736206,
        0.009617556817829609,
        0.029729146510362625,
        0.23723000288009644,
        0.0008213628316298127,
        0.03389100357890129,
        -0.06485189497470856,
        -0.04760509729385376
      ]
    },
    {
      "W": [
        [
          -0.07289373129606247,
          0.35767990350723267,
          0.051834333688020706,
          0.03472816199064255,
          -0.3599136769771576,
          -0.24167659878730774,
          -0.012171237729489803,
          0.022943029180169106,
          0.20917817950248718,
          0.10161585360765457,
          -0.32002273201942444,
          0.025863097980618477,
          -0.08595513552427292,
          -0.1354280263185501,
          -0.06678994745016098,
          -0.19902385771274567,
          0.08452945947647095,
          -0.17418329417705536,
          0.03348395600914955,
          0.07800459116697311,
          0.14650078117847443,
          -0.10660684108734131,
          0.21597303450107574,
          -0.2558986246585846,
          0.2619333267211914,
          0.30670133233070374,
          0.26720836758613586,
          0.15055552124977112,
          0.05924832075834274,
          -0.23547647893428802,
          0.24238532781600952,
          0.03485048934817314
        ],
        [
          0.04871096462011337,
          0.048943448811769485,
          0.27092868089675903,
          0.3087608218193054,
          -0.18663504719734192,
          0.05641116946935654,
          -0.2085050344467163,
          0.1914677768945694,
          -0.18645299971103668,
          -0.6938244700431824,
          0.11114633083343506,
          -0.2055594027042389,
          0.2720802128314972,
          -0.0579528734087944,
          0.2540775239467621,
          -0.2209702879190445,
          0.15773150324821472,
          -0.024650488048791885,
          -0.1601836234331131,
          -0.29261305928230286,
          0.0077169728465378284,
          -0.07299833744764328,
          -0.01067451760172844,
          0.016253428533673286,
          -0.366688996553421,
          0.3259986340999603,
          0.19037063419818878,
          -0.08066264539957047,
          0.14470939338207245,
          -0.1520605981349945,
          0.3028641939163208,
          0.26984572410583496
        ],
        [
          -0.45259803533554077,
          0.13598228991031647,
          0.44020894169807434,
          -0.25578024983406067,
          0.1759713888168335,
          -0.514214038848877,
          0.05842312425374985,
          -0.24110625684261322,
          -0.475710391998291,
          -0.24924112856388092,
          -0.2249501496553421,
          0.2557269036769867,
          -0.5145441889762878,
          -0.06359660625457764,
          0.2410336583852768,
          0.25725477933883667,
          -0.3151645064353943,
          -0.31087222695350647,
          0.453712522983551,
          -0.16318368911743164,
          0.5243156552314758,
          0.19885534048080444,
          -0.09119553118944168,
          -0.6199266314506531,
          0.2694905400276184,
          -0.11931409686803818,
          0.08902794867753983,
          0.13335971534252167,
          0.217733696103096,
          -0.1368355005979538,
          0.21697743237018585,
          0.075785331428051
        ],
        [
          -0.6653533577919006,
          0.21313869953155518,
          0.8325861692428589,
          0.04922492057085037,
          0.11446908116340637,
          -0.06302987784147263,
          -0.26081687211990356,
          -0.0552794449031353,
          -0.16393835842609406,
          -0.04734069108963013,
          0.16867399215698242,
          0.033306289464235306,
          -0.6920439600944519,
          -0.2675158679485321,
          0.14516854286193848,
          -0.0016035768203437328,
          0.1678130328655243,
          0.4465126097202301,
          -0.5527288317680359,
          0.09016472846269608,
          -0.24662016332149506,
          0.18615882098674774,
          0.2738616168498993,
          -0.14496906101703644,
          0.19878952205181122,
          -0.002814257051795721,
          -0.029582366347312927,
          0.3039608895778656,
          -0.4975598156452179,
          -0.12917611002922058,
          0.05069301649928093,
          -0.46695616841316223
        ],
        [
          0.18625424802303314,
          -0.3248818516731262,
          0.1929062008857727,
          -0.08316542208194733,
          0.19522330164909363,
          0.11857466399669647,
          -0.15613505244255066,
          -0.1348174661397934,
          -0.03672682121396065,
          -0.34489619731903076,
          0.15552379190921783,
          -0.10089141875505447,
          0.108857661485672,
          -0.3618465065956116,
          -0.12299934029579163,
          -0.3151344656944275,
          0.004441039636731148,
          0.1059698760509491,
          0.18135011196136475,
          -0.3790220022201538,
          -0.1441078931093216,
          0.08277241140604019,
          -0.07523901015520096,
          -0.4170531630516052,
          0.2232285887002945,
          0.37071964144706726,
          -0.09492241591215134,
          -0.07470307499170303,
          0.19091491401195526,
          -0.31760329008102417,
          0.055421847850084305,
          -0.28265848755836487
        ],
        [
          -0.2450246512889862,
          0.3140743374824524,
          0.19193600118160248,
          -0.011873525567352772,
          0.32404452562332153,
          -0.005296633578836918,
          0.10298853367567062,
          0.22982443869113922,
          0.10074831545352936,
          0.3307293951511383,
          0.01880456879734993,
          -0.04978608340024948,
          0.3933522701263428,
          0.010978755541145802,
          0.12264085561037064,
          0.12845271825790405,
          -0.29242557287216187,
          -0.4399450719356537,
          0.1541168987751007,
          -0.16775037348270416,
          0.17717403173446655,
          -0.20569507777690887,
          0.12744145095348358,
          -0.14188802242279053,
          -0.47711920738220215,
          -0.11538422852754593,
          0.11384374648332596,
          -0.20040231943130493,
          0.10602185130119324,
          0.45014500617980957,
          -0.156157448887825,
          0.33267754316329956
        ],
        [
          -0.11663036793470383,
          -0.20056751370429993,
          0.0279400497674942,
          0.07919510453939438,
          -0.1796744167804718,
          -0.2139049470424652,
          -0.4408515691757202,
          -0.10307054966688156,
          0.16294527053833008,
          0.021216552704572678,
          -0.4241245985031128,
          -0.22923609614372253,
          0.37730395793914795,
          -0.14588704705238342,
          0.26253050565719604,
          0.10771384090185165,
          -0.1550859957933426,
          0.1392063945531845,
          0.0634300634264946,
          0.20908914506435394,
          0.23609988391399384,
          0.20604223012924194,
          0.38152527809143066,
          -0.4633505344390869,
          -0.4060323238372803,
          -0.07722843438386917,
          0.005193538032472134,
          0.27087336778640747,
          0.03556819260120392,
          -0.34089788794517517,
          -0.21362090110778809,
          -0.11696229875087738
        ],
        [
          0.3098485767841339,
          -0.4308643937110901,
          0.25660091638565063,
          -0.06497477740049362,
          0.1794952005147934,
          -0.17210572957992554,
          0.03390495851635933,
          0.5548272728919983,
          -0.037830378860235214,
          0.31228911876678467,
          0.14882159233093262,
          -0.018829448148608208,
          -0.15090280771255493,
          -0.001462795538827777,
          -0.007679578848183155,
          0.27729126811027527,
          -0.21805250644683838,
          -0.15538690984249115,
          -0.3633408546447754,
          0.19915929436683655,
          -0.35782966017723083,
          -0.1393676996231079,
          -0.2736641466617584,
          0.14799652993679047,
          -0.014857309870421886,
          0.22077511250972748,
          0.2862216532230377,
          -0.2936956286430359,
          0.4090644121170044,
          0.20745857059955597,
          -0.27464231848716736,
          -0.21192756295204163
        ],
        [
          0.09217699617147446,
          0.10015927255153656,
          -0.03033190779387951,
          -0.016566233709454536,
          -0.11199301481246948,
          0.11622585356235504,
          0.3920596241950989,
          0.06638987362384796,
          -0.06495270133018494,
          0.13715843856334686,
          0.4744401276111603,
          -0.15524093806743622,
          0.09319272637367249,
          -0.1312643587589264,
          -0.002941720187664032,
          0.036002062261104584,
          -0.3927977383136749,
          -0.17607851326465607,
          0.1764279454946518,
          0.030176250264048576,
          -0.3591326177120209,
          -0.4408630132675171,
          -0.5519807934761047,
          -0.21623004972934723,
          0.15766304731369019,
          0.27660566568374634,
          -0.13643592596054077,
          -0.4038809537887573,
          0.05627352371811867,
          0.07554621994495392,
          0.23367635905742645,
          -0.18572348356246948
        ],
        [
          -0.38391193747520447,
          0.05143966153264046,
          0.2946987450122833,
          -0.054456908255815506,
          0.17435821890830994,
          0.0892680287361145,
          0.4827159345149994,
          -0.3765574097633362,
          0.0009899863507598639,
          -0.1520427018404007,
          -0.12449079006910324,
          -0.19552858173847198,
          -0.10457983613014221,
          -0.11764860898256302,
          -0.27733662724494934,
          -0.11081980913877487,
          -0.2654300630092621,
          0.279899924993515,
          -0.17504653334617615,
          0.1918364018201828,
          -0.4908615052700043,
          -0.06966506689786911,
          -0.34520018100738525,
          -0.04460098221898079,
          -0.1349741369485855,
          0.11756185442209244,
          -0.17888367176055908,
          0.01548407319933176,
          0.2728232145309448,
          -0.30947697162628174,
          -0.004682596307247877,
          -0.5889591574668884
        ],
        [
          0.2484889179468155,
          0.6184457540512085,
          0.19026406109333038,
          -0.19798187911510468,
          -0.16619165241718292,
          0.014054506085813046,
          -0.09313225746154785,
          -0.15463140606880188,
          0.2016076147556305,
          0.07356887310743332,
          -0.05944231152534485,
          0.03941729664802551,
          0.3034943640232086,
          -0.2333020567893982,
          0.015462958253920078,
          -0.2016206979751587,
          0.4467945694923401,
          0.09382084012031555,
          -0.11117508262395859,
          0.21193793416023254,
          0.31120380759239197,
          0.18604016304016113,
          0.20233270525932312,
          0.2345748096704483,
          0.23191355168819427,
          -0.12213031202554703,
          0.11299225687980652,
          0.11734022945165634,
          0.39057037234306335,
          0.05811159312725067,
          0.3359466791152954,
          0.02723788283765316
        ],
        [
          0.049312811344861984,
          -0.135464608669281,
          -0.3947801887989044,
          0.21825715899467468,
          -0.25267112255096436,
          -0.1591280996799469,
          0.2736225724220276,
          0.030092298984527588,
          -0.8078963756561279,
          -0.2712536156177521,
          0.15047341585159302,
          0.10928229987621307,
          -0.03645417466759682,
          -0.1300358921289444,
          0.36431753635406494,
          -0.0007338716532103717,
          0.142178475856781,
          0.3043748438358307,
          0.13950873911380768,
          0.4268769323825836,
          -0.4395723044872284,
          -0.17570461332798004,
          -0.5950369834899902,
          0.23716402053833008,
          -0.2111031711101532,
          0.09476977586746216,
          0.04008420929312706,
          -0.39477598667144775,
          -0.16122877597808838,
          0.2151908576488495,
          -0.44394704699516296,
          0.4133077561855316
        ],
        [
          0.007984000258147717,
          0.0579882487654686,
          -0.08707448095083237,
          -0.013104081153869629,
          0.25481441617012024,
          -0.603128969669342,
          0.09432482719421387,
          0.005018210969865322,
          0.008829529397189617,
          0.20152443647384644,
          0.26519739627838135,
          0.4233672618865967,
          0.00931023620069027,
          0.29466626048088074,
          -0.33352652192115784,
          -0.12296529114246368,
          0.2279215306043625,
          0.1294027715921402,
          -0.1549379676580429,
          -0.2079329937696457,
          -0.14260680973529816,
          0.06314409524202347,
          0.2827155590057373,
          -0.04023459926247597,
          -0.2277842015028,
          0.11020327359437943,
          -0.31792864203453064,
          -0.12346911430358887,
          -0.21168085932731628,
          -0.30736541748046875,
          -0.1430259346961975,
          -0.22247911989688873
        ],
        [
          0.002366655971854925,
          0.214844211935997,
          -0.22924698889255524,
          -0.11644849181175232,
          -0.44435152411460876,
          0.07691051810979843,
          -0.23266421258449554,
          -0.02994992583990097,
          0.13499419391155243,
          0.07959068566560745,
          0.100394107401371,
          0.19907264411449432,
          0.005256066098809242,
          0.09273175150156021,
          0.2624725103378296,
          0.01743399351835251,
          0.3624114990234375,
          -0.3605758845806122,
          0.42515119910240173,
          0.06753919273614883,
          0.33488935232162476,
          0.036811862140893936,
          0.5808672904968262,
          0.1480695605278015,
          -0.10979396104812622,
          0.1288781613111496,
          0.396568238735199,
          -0.017235899344086647,
          0.021633539348840714,
          -0.061065346002578735,
          -0.19554191827774048,
          0.08479774743318558
        ],
        [
          -0.3042433261871338,
          -0.024871204048395157,
          0.505638837814331,
          -0.04073125496506691,
          -0.23136231303215027,
          -0.15343205630779266,
          0.2908487021923065,
          -0.09307782351970673,
          -0.18450716137886047,
          -0.26147595047950745,
          0.4170108139514923,
          0.15572302043437958,
          0.0013165021082386374,
          0.15180251002311707,
          -0.1550595909357071,
          0.043937962502241135,
          -0.2305947095155716,
          0.18792973458766937,
          -0.3918653428554535,
          -0.14161652326583862,
          0.16986191272735596,
          0.2223971039056778,
          -0.1736341416835785,
          0.37224090099334717,
          -0.046454284340143204,
          0.1889272928237915,
          0.15717078745365143,
          0.30987101793289185,
          -0.1350061446428299,
          0.023941585794091225,
          0.13632528483867645,
          0.11276356130838394
        ],
        [
          -0.12818585336208344,
          0.10271056741476059,
          -0.13193631172180176,
          0.3558310270309448,
          -0.34668639302253723,
          -0.4233856201171875,
          -0.34052330255508423,
          -0.004538150504231453,
          -0.32209140062332153,
          0.2107635736465454,
          -0.4385099709033966,
          0.32572734355926514,
          -0.23868227005004883,
          -0.29929235577583313,
          -0.2065170705318451,
          0.18368268013000488,
          -0.10240761190652847,
          -0.15599195659160614,
          0.03050081804394722,
          -0.4542505145072937,
          0.026322949677705765,
          -0.5016857981681824,
          0.20631848275661469,
          -0.4285711348056793,
          0.06187839061021805,
          0.16189230978488922,
          0.079475536942482,
          -0.4263244867324829,
          -0.14690199494361877,
          -0.18131279945373535,
          0.3747682273387909,
          0.3790527582168579
        ],
        [
          0.08822808414697647,
          -0.17236746847629547,
          -0.021866904571652412,
          -0.003306665923446417,
          -0.12354116886854172,
          0.1510848104953766,
          0.246614009141922,
          0.40610143542289734,
          -0.094178207218647,
          -0.3690865635871887,
          0.369575560092926,
          -0.09365395456552505,
          -0.05831656605005264,
          0.13761180639266968,
          0.27825403213500977,
          0.08295011520385742,
          -0.2391926497220993,
          -0.1078452616930008,
          0.06430992484092712,
          0.023612312972545624,
          0.4036407768726349,
          -0.05745924636721611,
          -0.3304397463798523,
          0.041561029851436615,
          -0.21588227152824402,
          0.1724378615617752,
          0.28081780672073364,
          0.1263210028409958,
          0.11067654192447662,
          -0.0038973847404122353,
          0.33728551864624023,
          -0.2046416699886322
        ],
        [
          -0.10922937840223312,
          -0.23431627452373505,
          -0.24396778643131256,
          0.10180889815092087,
          0.1837681233882904,
          0.5010800361633301,
          0.3198283016681671,
          0.2815346121788025,
          -0.0766935646533966,
          0.11215840280056,
          0.04635998606681824,
          0.0872306376695633,
          0.1951402872800827,
          0.14394615590572357,
          -0.14727206528186798,
          -0.348418653011322,
          -0.3286771774291992,
          -0.005863418336957693,
          0.10689486563205719,
          -0.051041897386312485,
          0.026699574664235115,
          -0.12137364596128464,
          -0.19390031695365906,
          -0.16563358902931213,
          -0.3567323684692383,
          -0.15497325360774994,
          -0.2563770115375519,
          0.2356112152338028,
          0.11442537605762482,
          0.2829439640045166,
          -0.06210572272539139,
          -0.0026039823424071074
        ],
        [
          0.4230283200740814,
          0.1640906184911728,
          -0.23123855888843536,
          0.14638443291187286,
          0.19288088381290436,
          -0.011308889836072922,
          -0.10160178691148758,
          0.10923658311367035,
          -0.18269817531108856,
          0.19102296233177185,
          0.2863074839115143,
          -0.09777817130088806,
          -0.5667108297348022,
          0.24651983380317688,
          0.02292865328490734,
          -0.16198858618736267,
          0.27490079402923584,
          -0.11869921535253525,
          0.14969006180763245,
          0.14439663290977478,
          0.5315554738044739,
          0.37189263105392456,
          -0.30975303053855896,
          0.4498557150363922,
          0.11236267536878586,
          -0.042849067598581314,
          0.027191905304789543,
          0.19325540959835052,
          -0.3795132040977478,
          0.24525786936283112,
          -0.1911035031080246,
          0.085979163646698
        ],
        [
          -0.2980532646179199,
          -0.24517367780208588,
          0.48048681020736694,
          0.028530817478895187,
          0.23562216758728027,
          -0.06482364237308502,
          0.22049112617969513,
          0.14154060184955597,
          0.20826181769371033,
          -0.18197770416736603,
          -0.19109080731868744,
          -0.29627174139022827,
          -0.06679396331310272,
          -0.294390469789505,
          0.021235598251223564,
          0.3610316514968872,
          -0.06366271525621414,
          0.4410806894302368,
          0.04009750112891197,
          0.13725227117538452,
          -0.3835733234882355,
          -0.3669756352901459,
          -0.17446255683898926,
          0.000997672090306878,
          0.1834329515695572,
          -0.1318541318178177,
          -0.050767216831445694,
          -0.14784647524356842,
          -0.5483766794204712,
          -0.10278859734535217,
          -0.27019789814949036,
          -0.4225740134716034
        ],
        [
          0.269883930683136,
          0.0857955664396286,
          -0.30436575412750244,
          0.13250908255577087,
          0.13290651142597198,
          -0.023539992049336433,
          0.028188001364469528,
          -0.10871799290180206,
          -0.12506213784217834,
          0.0015934978146106005,
          -0.0660545602440834,
          -0.5598371028900146,
          0.005670404527336359,
          -0.05245916172862053,
          -0.50380939245224,
          -0.17274469137191772,
          -0.2566710114479065,
          0.19991040229797363,
          -0.30814188718795776,
          -0.056571464985609055,
          -0.2706364393234253,
          -0.13049748539924622,
          0.23045283555984497,
          -0.5377489924430847,
          -0.30272114276885986,
          0.06756602972745895,
          -0.6172960996627808,
          0.22437821328639984,
          0.24502937495708466,
          0.1446119248867035,
          -0.06938782334327698,
          -0.027774972841143608
        ],
        [
          -0.07629594951868057,
          0.12304402887821198,
          -0.2668888568878174,
          -0.28096240758895874,
          -0.07059311866760254,
          -0.049716442823410034,
          0.129647895693779,
          0.11750852316617966,
          -0.2367100566625595,
          0.24790510535240173,
          0.039329227060079575,
          0.012524486519396305,
          -0.022915486246347427,
          0.1680237352848053,
          -0.5045367479324341,
          -0.3318181037902832,
          -0.17646455764770508,
          -0.12637773156166077,
          -0.15569888055324554,
          0.02666340582072735,
          -0.057081274688243866,
          0.04410551115870476,
          -0.27038055658340454,
          -0.17708918452262878,
          -0.10882392525672913,
          -0.17816920578479767,
          -0.6094478368759155,
          -0.08239400386810303,
          -0.4131183326244354,
          -0.1880670040845871,
          -0.06367418169975281,
          0.2041037529706955
        ],
        [
          0.4867078363895416,
          -0.15600897371768951,
          -0.07983143627643585,
          0.23435911536216736,
          0.07040486484766006,
          -0.03609507530927658,
          -0.18912982940673828,
          0.16600878536701202,
          -0.2887324392795563,
          -0.3666851818561554,
          -0.12488304078578949,
          0.22820229828357697,
          0.0011650800006464124,
          0.35575175285339355,
          0.46464887261390686,
          0.16338804364204407,
          0.023024296388030052,
          -0.18647751212120056,
          0.029278041794896126,
          -0.3120817542076111,
          0.42015340924263,
          -0.3273383378982544,
          -0.40659379959106445,
          -0.03475028648972511,
          0.25103500485420227,
          -0.06210201978683472,
          -0.012382824905216694,
          -0.24647167325019836,
          0.008658397011458874,
          0.3608134090900421,
          0.183112233877182,
          -0.015576272271573544
        ],
        [
          0.20421697199344635,
          -0.016527580097317696,
          0.0945991575717926,
          0.13061577081680298,
          0.25806888937950134,
          -0.11139591038227081,
          -0.02112005092203617,
          0.37377163767814636,
          0.039563268423080444,
          0.2204463928937912,
          0.18689821660518646,
          0.24133220314979553,
          -0.2545173168182373,
          0.09650752693414688,
          0.11191274970769882,
          -0.0925184041261673,
          0.5378437638282776,
          -0.38078954815864563,
          0.03912085294723511,
          0.5195819139480591,
          0.21328744292259216,
          0.0587330088019371,
          -0.0680932030081749,
          0.41566944122314453,
          0.47040507197380066,
          -0.12948265671730042,
          0.16782626509666443,
          0.11015510559082031,
          -0.277212917804718,
          0.15867523849010468,
          -0.574315071105957,
          -0.6622461080551147
        ],
        [
          -0.2720193862915039,
          -0.0326622910797596,
          0.024102292954921722,
          0.12051863223314285,
          -0.43158894777297974,
          0.21976032853126526,
          0.11049384623765945,
          -0.17911453545093536,
          -0.3478432595729828,
          0.29658299684524536,
          0.28436079621315,
          -0.024494390934705734,
          -0.035556986927986145,
          -0.10524304211139679,
          -0.3504641056060791,
          -0.3371032178401947,
          0.18615786731243134,
          -0.10620730370283127,
          0.2716975510120392,
          0.37914174795150757,
          0.11237318068742752,
          0.19308224320411682,
          0.1397390216588974,
          0.10777844488620758,
          -0.30578944087028503,
          0.0287168025970459,
          -0.2463294416666031,
          0.07665803283452988,
          0.00910824816673994,
          0.17633149027824402,
          0.14187951385974884,
          -0.09672052413225174
        ],
        [
          -0.4595218598842621,
          0.04332384839653969,
          0.19162605702877045,
          -0.2801392674446106,
          -0.4192292392253876,
          -0.16582703590393066,
          -0.19023463129997253,
          0.3336904048919678,
          0.3186567425727844,
          -0.2129046618938446,
          0.27463534474372864,
          -0.23399952054023743,
          -0.383765310049057,
          0.01876998320221901,
          -0.021685728803277016,
          0.10605522245168686,
          -0.12311937659978867,
          0.16134777665138245,
          0.023595230653882027,
          0.043235812336206436,
          0.33675432205200195,
          0.18016989529132843,
          0.29009273648262024,
          -0.3003821074962616,
          0.24998590350151062,
          0.07802023738622665,
          0.10807424038648605,
          -0.2525840401649475,
          -0.186212956905365,
          -0.05067948251962662,
          -0.22090595960617065,
          -0.6746436953544617
        ],
        [
          -0.15258191525936127,
          0.19889454543590546,
          0.44374942779541016,
          -0.43947210907936096,
          -0.12000402808189392,
          0.12432993948459625,
          0.25690409541130066,
          0.05899803712964058,
          -0.2583862543106079,
          -0.16354894638061523,
          0.08227531611919403,
          -0.4823741316795349,
          -0.2828681170940399,
          -0.032765138894319534,
          -0.8659875988960266,
          -0.1282794177532196,
          0.11053541302680969,
          0.24270859360694885,
          0.13221094012260437,
          -0.24226456880569458,
          -0.07624071091413498,
          -0.25284838676452637,
          -0.2337300330400467,
          -0.29181692004203796,
          -0.23681743443012238,
          -0.1058511808514595,
          -0.14561083912849426,
          -0.05386289581656456,
          -0.08746547996997833,
          0.16598710417747498,
          0.07335354387760162,
          -0.14647620916366577
        ],
        [
          -0.3684617578983307,
          0.22888152301311493,
          0.3837760388851166,
          0.3607572019100189,
          0.13038820028305054,
          -0.1746852844953537,
          0.07941003143787384,
          -0.2454664409160614,
          -0.1744716912508011,
          0.19615806639194489,
          0.043300025165081024,
          0.32245033979415894,
          0.09322335571050644,
          -0.0772784948348999,
          -0.3900177478790283,
          0.3409844636917114,
          -0.16827289760112762,
          -0.35259780287742615,
          0.024144290015101433,
          -0.2891768217086792,
          0.0966305136680603,
          -0.22832979261875153,
          0.07167299836874008,
          -0.5589972138404846,
          0.32591116428375244,
          -0.04438898339867592,
          -0.12954725325107574,
          -0.33608508110046387,
          -0.3057056665420532,
          0.08263792842626572,
          0.327495813369751,
          0.24249663949012756
        ],
        [
          0.20504160225391388,
          0.007147823926061392,
          -0.10390732437372208,
          -0.10356471687555313,
          -0.012018741108477116,
          0.18403835594654083,
          -1.725329875946045,
          -0.11234938353300095,
          0.13501809537410736,
          -0.051748018711805344,
          -0.11890902370214462,
          -0.1956527829170227,
          -0.06857064366340637,
          0.15862391889095306,
          0.42268189787864685,
          0.24615071713924408,
          0.3334384262561798,
          -0.31237223744392395,
          0.1771887093782425,
          0.17888778448104858,
          -0.15633457899093628,
          0.06666233390569687,
          0.2887154519557953,
          0.1647249460220337,
          0.1365625113248825,
          0.03459083288908005,
          0.13445959985256195,
          -0.139214888215065,
          -0.18557406961917877,
          -0.15669356286525726,
          0.20733851194381714,
          0.13674543797969818
        ],
        [
          -0.30586937069892883,
          0.1740005910396576,
          0.12096374481916428,
          0.14979392290115356,
          0.5843339562416077,
          0.29998546838760376,
          0.06809625029563904,
          0.20137114822864532,
          -0.26900240778923035,
          -0.5842905640602112,
          0.18731142580509186,
          0.34304580092430115,
          -0.03278256580233574,
          0.2031099498271942,
          -0.3297739326953888,
          0.20776817202568054,
          -0.3798525631427765,
          -0.12453105300664902,
          0.5806304812431335,
          -0.5368795394897461,
          -0.19190441071987152,
          0.546314537525177,
          -0.19167177379131317,
          -0.09487790614366531,
          0.5494957566261292,
          0.2434554547071457,
          -0.07985449582338333,
          0.00557546503841877,
          0.20655666291713715,
          -0.4080585539340973,
          0.02608598582446575,
          0.23606449365615845
        ],
        [
          0.11424126476049423,
          -0.13374723494052887,
          -0.13101468980312347,
          -0.12017098069190979,
          -0.2895013093948364,
          0.2412930279970169,
          -0.2618977427482605,
          0.04917757958173752,
          0.261682391166687,
          0.07419003546237946,
          -0.30705660581588745,
          0.47765594720840454,
          -0.06312631070613861,
          0.574067234992981,
          0.14033827185630798,
          0.1651952862739563,
          0.35711154341697693,
          -0.14735251665115356,
          0.22035951912403107,
          -0.4132540822029114,
          -0.14088450372219086,
          0.003787893569096923,
          0.36300790309906006,
          0.1382633000612259,
          -0.07758138328790665,
          0.004945273045450449,
          0.44364839792251587,
          0.12711456418037415,
          0.11287258565425873,
          0.17407985031604767,
          0.2149336338043213,
          -0.07438339293003082
        ],
        [
          -0.2564309239387512,
          0.2708803713321686,
          0.4835878312587738,
          -0.20188626646995544,
          0.10315865278244019,
          -0.1732695996761322,
          -0.29535728693008423,
          -0.2224513292312622,
          0.2814610004425049,
          -0.21068112552165985,
          0.15453360974788666,
          -0.49146783351898193,
          0.3588539958000183,
          0.02858676202595234,
          0.18613946437835693,
          -0.16820721328258514,
          -0.3639690577983856,
          0.009167946875095367,
          0.5229107141494751,
          -0.3104521334171295,
          0.16483120620250702,
          0.3033016622066498,
          -0.013593601994216442,
          0.19811859726905823,
          0.12847886979579926,
          -0.44738948345184326,
          -0.47572049498558044,
          0.12704569101333618,
          0.037951912730932236,
          -0.052425969392061234,
          -0.03009541891515255,
          0.3589792847633362
        ],
        [
          0.25137558579444885,
          -0.3897744417190552,
          -0.5341339111328125,
          -0.17414523661136627,
          -0.02799598127603531,
          0.3977528214454651,
          0.04877951368689537,
          -0.4545905590057373,
          0.22244879603385925,
          -0.3982919752597809,
          -0.00891542062163353,
          0.058990251272916794,
          0.07678063958883286,
          0.29024699330329895,
          -0.3064625859260559,
          -0.18666161596775055,
          -0.1560431271791458,
          -0.0031247723381966352,
          0.009425923228263855,
          0.0021270124707370996,
          -0.11763671785593033,
          -0.6739639639854431,
          -0.17097562551498413,
          -0.0558832511305809,
          -0.2459421008825302,
          0.004844004288315773,
          -0.006467735394835472,
          -0.46945804357528687,
          0.17614926397800446,
          -0.28198280930519104,
          -0.2885274291038513,
          -0.1528863161802292
        ],
        [
          -0.23577149212360382,
          0.30549266934394836,
          -0.3661635220050812,
          -0.22043421864509583,
          -0.29155945777893066,
          0.1029171496629715,
          -0.027343789115548134,
          -0.8666049242019653,
          0.003578033298254013,
          0.09588629007339478,
          0.19015483558177948,
          0.20989593863487244,
          -0.23601306974887848,
          0.38828885555267334,
          0.024944543838500977,
          0.12294760346412659,
          -0.005241961218416691,
          0.014298534952104092,
          -0.027238769456744194,
          -0.12388520687818527,
          0.11936625838279724,
          0.08415356278419495,
          0.10484849661588669,
          -0.0851341187953949,
          0.10969550907611847,
          0.07978048920631409,
          -0.019231723621487617,
          0.2230607271194458,
          -0.0965038537979126,
          0.17004473507404327,
          -0.18034999072551727,
          -0.27253684401512146
        ],
        [
          0.20306389033794403,
          -0.031830281019210815,
          -0.0077606867998838425,
          0.21194621920585632,
          0.08848157525062561,
          0.44346562027931213,
          -0.36034274101257324,
          0.15025325119495392,
          -0.19534912705421448,
          0.4202001392841339,
          -0.2647738456726074,
          -0.055337537080049515,
          -0.06792964041233063,
          0.14020463824272156,
          0.28322890400886536,
          0.1293090283870697,
          0.0716921016573906,
          0.07854793220758438,
          -0.2653408348560333,
          0.27692046761512756,
          0.04824012890458107,
          -0.15029388666152954,
          0.05763973295688629,
          -0.005956596229225397,
          0.16488111019134521,
          0.026385214179754257,
          0.14822767674922943,
          -0.1621033102273941,
          0.4260554015636444,
          0.42154309153556824,
          0.018031850457191467,
          0.1864095777273178
        ],
        [
          0.14314383268356323,
          -0.06516904383897781,
          -0.46568796038627625,
          -0.1345534473657608,
          0.15341068804264069,
          -0.05027125030755997,
          0.23054741322994232,
          0.059015482664108276,
          -0.27709755301475525,
          -0.2605355978012085,
          -0.00654348311945796,
          -0.1624411791563034,
          -0.43339869379997253,
          -0.0796748548746109,
          -0.04715704545378685,
          0.1747528612613678,
          -1.0719510316848755,
          -0.02859554998576641,
          0.16205275058746338,
          0.13441067934036255,
          -0.6039607524871826,
          -0.5182740688323975,
          -0.5436122417449951,
          -0.11496186256408691,
          -0.4281396269798279,
          -0.2537936568260193,
          -0.3144320249557495,
          0.02839500457048416,
          -0.09354343265295029,
          0.19399765133857727,
          0.24700595438480377,
          0.33168378472328186
        ],
        [
          -0.336710125207901,
          -0.03066018782556057,
          -0.36272498965263367,
          0.16370581090450287,
          -0.44601836800575256,
          0.41226205229759216,
          0.051237802952528,
          0.4553861618041992,
          0.37448689341545105,
          0.3536944091320038,
          -0.11747332662343979,
          0.12643073499202728,
          -0.21191266179084778,
          0.041305508464574814,
          -0.1973249465227127,
          0.2684504985809326,
          0.16178664565086365,
          0.048942726105451584,
          0.2698300778865814,
          -0.13505211472511292,
          0.2768040597438812,
          0.09817217290401459,
          0.2144065648317337,
          -0.19408737123012543,
          0.2863143980503082,
          -0.27149420976638794,
          -0.2542826533317566,
          0.13128837943077087,
          -0.45951610803604126,
          -0.22729793190956116,
          0.25473856925964355,
          -0.07902537286281586
        ],
        [
          0.19112081825733185,
          -0.14515084028244019,
          0.11490628123283386,
          -0.05941026285290718,
          0.7690011858940125,
          -0.28392472863197327,
          -0.24781644344329834,
          0.1395944058895111,
          -0.17659756541252136,
          -0.11707943677902222,
          0.2024499922990799,
          0.3811870515346527,
          0.16676144301891327,
          0.2349318116903305,
          -0.0504060722887516,
          -0.10824842751026154,
          -0.07454931735992432,
          -0.16274504363536835,
          0.27851250767707825,
          -0.1968110352754593,
          -0.16052381694316864,
          -0.21591846644878387,
          0.14090320467948914,
          -0.0880831703543663,
          -0.22122697532176971,
          0.2015649825334549,
          -0.04819435626268387,
          -0.2031802535057068,
          -0.16725675761699677,
          -0.00045269777183420956,
          -0.031579699367284775,
          -0.17456693947315216
        ],
        [
          -0.2620917856693268,
          0.20884911715984344,
          0.16160225868225098,
          -0.34531810879707336,
          -0.06907746940851212,
          -0.18171198666095734,
          -0.09073230624198914,
          -0.4339147210121155,
          -0.09072831273078918,
          0.011846177279949188,
          -0.10130158066749573,
          0.04516197368502617,
          -0.08959509432315826,
          0.26530784368515015,
          0.26763126254081726,
          -0.2926643490791321,
          -0.23410896956920624,
          -0.11309922486543655,
          0.051241543143987656,
          0.1487347036600113,
          0.07353374361991882,
          0.1424339860677719,
          0.17549613118171692,
          -0.13907060027122498,
          0.2700674533843994,
          -0.04700390249490738,
          0.116592176258564,
          -0.0794740840792656,
          0.1402961015701294,
          0.37331461906433105,
          -0.018146730959415436,
          0.32084915041923523
        ],
        [
          -0.15597748756408691,
          0.16036789119243622,
          0.08110405504703522,
          0.1361364871263504,
          -0.3199295699596405,
          0.2640465199947357,
          0.04247139394283295,
          -0.14686903357505798,
          0.08335159718990326,
          0.030409667640924454,
          0.302497923374176,
          0.2846566438674927,
          0.09479121118783951,
          0.4732256531715393,
          -0.12921003997325897,
          0.07965011149644852,
          0.19400636851787567,
          0.052465010434389114,
          -0.2917938530445099,
          -0.1369123011827469,
          0.22737012803554535,
          0.09399085491895676,
          0.1411518007516861,
          -0.1574619710445404,
          0.23283357918262482,
          -0.07588958740234375,
          -0.012972799129784107,
          -0.16100344061851501,
          -0.09045425802469254,
          0.5387489795684814,
          0.14646035432815552,
          0.022991416975855827
        ],
        [
          -0.0864962488412857,
          0.035981085151433945,
          -0.06265720725059509,
          0.18186922371387482,
          0.4045000970363617,
          -0.35874924063682556,
          -0.2914404571056366,
          0.132028728723526,
          0.11033537983894348,
          -0.024180833250284195,
          0.26861271262168884,
          -0.17206209897994995,
          -0.05530790612101555,
          0.09394139796495438,
          -0.10096479207277298,
          0.3018459975719452,
          0.18422579765319824,
          -0.4390961229801178,
          0.06666246056556702,
          -0.1821979433298111,
          0.14390164613723755,
          0.008863866329193115,
          -0.08315739035606384,
          0.35831278562545776,
          0.24011017382144928,
          -0.5625413060188293,
          0.08200151473283768,
          0.28955039381980896,
          -0.06672877818346024,
          -0.08091828972101212,
          0.09257563948631287,
          0.19873692095279694
        ],
        [
          -0.018622884526848793,
          -0.4473118782043457,
          -0.23208752274513245,
          0.2288074791431427,
          0.40545520186424255,
          0.14267674088478088,
          0.25616320967674255,
          -0.05278816074132919,
          0.005529665853828192,
          0.10528194159269333,
          -0.1495652049779892,
          -0.0005949670448899269,
          -0.024107255041599274,
          0.01111586857587099,
          0.0664091631770134,
          -0.290803462266922,
          -1.5669035911560059,
          -0.06089022755622864,
          0.2941407561302185,
          0.1710749864578247,
          -0.14264418184757233,
          -1.3520680665969849,
          -0.05935443937778473,
          0.20377126336097717,
          0.12074411660432816,
          -0.11192099004983902,
          -0.15882232785224915,
          -0.9436266422271729,
          0.04478519409894943,
          -0.6281201839447021,
          -0.30020812153816223,
          0.15112726390361786
        ],
        [
          -0.1433095782995224,
          0.3461047112941742,
          -0.01745661348104477,
          0.4189249575138092,
          -0.02958928421139717,
          0.08303667604923248,
          0.005084063857793808,
          -0.14155055582523346,
          -0.07156385481357574,
          -0.61294025182724,
          0.16130921244621277,
          0.11697626858949661,
          0.08933775126934052,
          0.01813061162829399,
          0.09231512993574142,
          0.4832889437675476,
          -0.22586476802825928,
          -0.2206757515668869,
          -0.0921480655670166,
          0.1599786877632141,
          -0.40090441703796387,
          0.14627692103385925,
          0.27470099925994873,
          0.4997498393058777,
          -0.06529112160205841,
          -0.04778756946325302,
          0.20214425027370453,
          -0.18179118633270264,
          0.07446116954088211,
          -0.020720776170492172,
          0.17605076730251312,
          0.26378628611564636
        ],
        [
          0.11373748630285263,
          0.005968304350972176,
          0.22254778444766998,
          -0.32077375054359436,
          0.19692446291446686,
          -0.31542783975601196,
          -0.02522791549563408,
          -0.14209963381290436,
          0.3246206045150757,
          0.10718078166246414,
          0.2202834188938141,
          -0.27868226170539856,
          0.08744458109140396,
          0.27918288111686707,
          -0.20555910468101501,
          0.11938106268644333,
          -0.06778465211391449,
          -0.010671490803360939,
          0.2786863446235657,
          0.3332761824131012,
          -0.08633110672235489,
          -0.16861668229103088,
          0.1934366077184677,
          0.16870352625846863,
          0.16641566157341003,
          0.15976391732692719,
          0.16966861486434937,
          0.03284967690706253,
          -0.14842432737350464,
          -0.14244239032268524,
          -0.8342018127441406,
          -0.09620435535907745
        ],
        [
          0.1955377161502838,
          0.12951096892356873,
          0.07534520328044891,
          -0.13233041763305664,
          -0.05733872577548027,
          0.2586444616317749,
          -0.1956891566514969,
          0.15883325040340424,
          -0.31238943338394165,
          0.21368162333965302,
          0.041431725025177,
          0.40015557408332825,
          -0.1698259711265564,
          -0.1673324853181839,
          0.006565639283508062,
          -0.09428673982620239,
          -0.17624232172966003,
          -0.31136712431907654,
          -0.12337476760149002,
          0.25706371665000916,
          0.27427980303764343,
          0.33991938829421997,
          0.11716006696224213,
          0.16048765182495117,
          0.35358700156211853,
          0.34185704588890076,
          0.006933431141078472,
          0.15965795516967773,
          0.3060918152332306,
          0.1333557516336441,
          -0.004599712323397398,
          0.16279427707195282
        ],
        [
          -0.06699904799461365,
          0.1610308587551117,
          0.30275943875312805,
          -0.10842733830213547,
          0.08634237945079803,
          0.04951091855764389,
          -0.18156753480434418,
          0.17560209333896637,
          0.10944821685552597,
          -0.17086981236934662,
          0.014902934432029724,
          0.007381150498986244,
          0.22298510372638702,
          -0.4346284866333008,
          -0.1484713852405548,
          -0.4351296126842499,
          0.1627904325723648,
          0.7231262922286987,
          0.24339456856250763,
          -0.15069404244422913,
          0.42366600036621094,
          -0.07005079835653305,
          0.21807193756103516,
          -0.02022600919008255,
          -0.18471971154212952,
          0.06458166986703873,
          -0.01967264711856842,
          0.06457619369029999,
          0.32613101601600647,
          -0.07789365947246552,
          0.034292709082365036,
          -0.353919118642807
        ],
        [
          0.005508115515112877,
          -0.14270129799842834,
          0.10400418937206268,
          0.32977938652038574,
          -0.33066463470458984,
          -0.11548153311014175,
          -0.23149234056472778,
          0.11116182804107666,
          0.1883571892976761,
          0.15638644993305206,
          -0.35887137055397034,
          0.06794541329145432,
          0.14753477275371552,
          -0.4679410457611084,
          -0.31200850009918213,
          -0.24574065208435059,
          -0.12215730547904968,
          0.06190880760550499,
          -0.2966492772102356,
          -0.12980005145072937,
          -0.21233464777469635,
          -0.04076999053359032,
          -0.005247295368462801,
          -0.0838060975074768,
          -0.24893534183502197,
          0.36214330792427063,
          0.23202070593833923,
          0.08704765886068344,
          0.07798703759908676,
          -0.2919977903366089,
          0.1368769109249115,
          0.03423058241605759
        ],
        [
          0.2597793638706207,
          -0.27047646045684814,
          -0.053542423993349075,
          0.3666142225265503,
          -0.20104296505451202,
          -0.16458217799663544,
          -0.23059913516044617,
          -0.09301863610744476,
          0.226479634642601,
          -0.03168030083179474,
          -0.010257693007588387,
          0.16981954872608185,
          0.2783318758010864,
          -0.08540569990873337,
          -0.05471052601933479,
          -0.30101948976516724,
          -0.18796268105506897,
          0.19329914450645447,
          -0.4331560730934143,
          0.26705482602119446,
          0.32396987080574036,
          0.17885707318782806,
          0.3304121494293213,
          -0.20447266101837158,
          0.6339632272720337,
          -0.2608478367328644,
          -0.003328715916723013,
          0.06602086871862411,
          0.16399507224559784,
          0.09105609357357025,
          0.1193617656826973,
          0.06836362183094025
        ],
        [
          -0.31096151471138,
          -0.19421525299549103,
          -0.41232410073280334,
          0.1425309032201767,
          -0.116714246571064,
          0.23204626142978668,
          0.15867473185062408,
          0.16979053616523743,
          0.020544132217764854,
          -0.016088414937257767,
          -0.1215098574757576,
          0.21340632438659668,
          -0.3506673574447632,
          -0.14458556473255157,
          0.07947521656751633,
          0.2439521998167038,
          0.0032392104621976614,
          -0.8656822443008423,
          -0.06087590008974075,
          -0.16539935767650604,
          -0.04968179017305374,
          -0.006946931593120098,
          0.07319474965333939,
          0.04552211984992027,
          -0.2795776128768921,
          -0.17136722803115845,
          0.06715575605630875,
          -0.09547687321901321,
          -0.8179774880409241,
          0.33015820384025574,
          0.2828228771686554,
          -0.3101501166820526
        ],
        [
          0.1222391203045845,
          -0.502039909362793,
          -0.1698170304298401,
          0.11680243909358978,
          0.0710926502943039,
          0.4256080985069275,
          0.01087850984185934,
          -0.11075665801763535,
          -0.0004198897513560951,
          -0.07215221971273422,
          0.0311737097799778,
          -0.013135888613760471,
          0.18946987390518188,
          -0.32710686326026917,
          0.04540577530860901,
          0.03197889029979706,
          0.3096512258052826,
          0.2792295515537262,
          -0.22126683592796326,
          0.3089183270931244,
          -0.07879597693681717,
          -0.11723334342241287,
          0.05586268752813339,
          0.07854155451059341,
          -0.1873725950717926,
          0.3429453372955322,
          0.13293622434139252,
          0.12549953162670135,
          0.1094379872083664,
          -0.14269158244132996,
          0.04950087144970894,
          0.06626798957586288
        ],
        [
          -0.003097912995144725,
          -0.3231717050075531,
          0.22340498864650726,
          0.1498936414718628,
          -0.0686064213514328,
          -0.16856533288955688,
          0.13483378291130066,
          -0.47717148065567017,
          -0.4981802999973297,
          -0.1852647364139557,
          0.3435821235179901,
          -0.23019292950630188,
          0.06791850179433823,
          -0.12493304163217545,
          -0.3723220229148865,
          0.1823863536119461,
          -0.28378117084503174,
          0.014435197226703167,
          0.04212859272956848,
          0.010681193321943283,
          0.007037353701889515,
          0.2948276102542877,
          -0.29089847207069397,
          0.10900316387414932,
          0.10850498080253601,
          0.03709738329052925,
          -0.19494086503982544,
          -0.4132709205150604,
          -0.4062756896018982,
          0.4097554683685303,
          -0.4681693911552429,
          -0.1570395678281784
        ],
        [
          -0.031581319868564606,
          0.1533890813589096,
          0.022822175174951553,
          -0.005496032536029816,
          -0.17269854247570038,
          -0.21112953126430511,
          -0.16100051999092102,
          0.30132272839546204,
          0.12331846356391907,
          -0.28025636076927185,
          -0.05345821753144264,
          -0.12192365527153015,
          0.16518592834472656,
          0.24430948495864868,
          0.027133451774716377,
          0.34598273038864136,
          0.19814638793468475,
          0.049720458686351776,
          -0.15455262362957,
          0.08533000946044922,
          -0.16975107789039612,
          0.2369304746389389,
          0.30817869305610657,
          -0.5166620016098022,
          0.15259191393852234,
          0.09804176539182663,
          0.0520317442715168,
          0.22920960187911987,
          0.2683762013912201,
          0.0020566165912896395,
          0.08914031833410263,
          -0.11978641897439957
        ],
        [
          0.4435933530330658,
          0.18187271058559418,
          0.21159203350543976,
          -0.004892086610198021,
          -0.01956731639802456,
          -0.3277556896209717,
          -0.6232039332389832,
          -0.09567005187273026,
          -0.4343259036540985,
          0.04934860020875931,
          0.10653361678123474,
          -0.3901633024215698,
          -0.06971445679664612,
          0.01448801625519991,
          0.35403379797935486,
          -0.08150234073400497,
          -0.03243984654545784,
          0.07992707192897797,
          -0.26376107335090637,
          -0.05843142047524452,
          0.2627609372138977,
          0.410299688577652,
          0.33872467279434204,
          -0.00487099215388298,
          0.5417609214782715,
          -0.13855883479118347,
          -0.08199745416641235,
          -0.3266032040119171,
          0.054202716797590256,
          -0.21674738824367523,
          0.18900173902511597,
          -0.07241995632648468
        ],
        [
          -0.25599804520606995,
          -0.4043421447277069,
          -0.054492637515068054,
          -0.11587142199277878,
          0.007381117437034845,
          -0.3012126088142395,
          0.06516875326633453,
          0.16468451917171478,
          0.42110517621040344,
          0.003190813586115837,
          -0.20107674598693848,
          -0.14397883415222168,
          -0.043962202966213226,
          -0.1604471653699875,
          0.021746482700109482,
          0.4388861060142517,
          -0.13175179064273834,
          0.1163477674126625,
          0.08550217002630234,
          -0.07526227086782455,
          0.1675044298171997,
          -0.20259049534797668,
          -0.04858038201928139,
          0.028130991384387016,
          0.5224754214286804,
          0.17223386466503143,
          -0.26494652032852173,
          -0.44664284586906433,
          -0.029458437114953995,
          -0.041139502078294754,
          -0.003131510689854622,
          0.3604838252067566
        ],
        [
          0.21294523775577545,
          0.02544740028679371,
          -0.13550694286823273,
          0.15552107989788055,
          -0.6861334443092346,
          -0.018405184149742126,
          -0.049381986260414124,
          -0.0775107815861702,
          0.07802366465330124,
          -0.0942191332578659,
          0.2374652624130249,
          0.019661277532577515,
          0.023946283385157585,
          0.5505696535110474,
          -0.055490780621767044,
          0.23196035623550415,
          -0.38361912965774536,
          -0.2522381842136383,
          0.3139660954475403,
          -0.9602646231651306,
          -0.27425676584243774,
          -0.16521885991096497,
          -0.04098154231905937,
          -0.02642585150897503,
          0.19550040364265442,
          -0.23121923208236694,
          -0.06819126754999161,
          -0.16305318474769592,
          0.0039844331331551075,
          -0.2518984377384186,
          -0.2628116309642792,
          0.2897774577140808
        ],
        [
          0.021199287846684456,
          0.1220083013176918,
          -0.13399699330329895,
          0.11799541860818863,
          -0.5170128345489502,
          -0.325990229845047,
          0.22730161249637604,
          0.03871441259980202,
          -0.07843153923749924,
          0.11531344056129456,
          0.07118478417396545,
          -0.19589698314666748,
          0.37240007519721985,
          -0.22665074467658997,
          0.11752959340810776,
          -0.17531998455524445,
          -0.370699405670166,
          0.2098136842250824,
          0.15912604331970215,
          -1.562629222869873,
          -0.26280176639556885,
          -1.5809745788574219,
          -0.3116593062877655,
          0.05184921622276306,
          0.05041343346238136,
          -0.006587594281882048,
          0.08082868903875351,
          -0.9138009548187256,
          -0.42128902673721313,
          -0.2392140030860901,
          -0.3067101240158081,
          0.11593092232942581
        ],
        [
          -0.29444995522499084,
          0.131822407245636,
          -0.06511329859495163,
          -0.08577395230531693,
          -0.1849076896905899,
          -0.04610523581504822,
          0.19142863154411316,
          0.0956798791885376,
          0.40929412841796875,
          -0.00023355116718448699,
          0.2733163833618164,
          0.19776314496994019,
          0.3001115322113037,
          0.48548924922943115,
          0.24651731550693512,
          -0.14311359822750092,
          0.3626282513141632,
          0.1456376016139984,
          0.26523852348327637,
          0.06454050540924072,
          0.5390504002571106,
          -0.014887196011841297,
          0.03629584237933159,
          0.006782928016036749,
          0.05412822589278221,
          -0.08024868369102478,
          -0.21788419783115387,
          0.09691733866930008,
          -0.11976734548807144,
          0.2389034628868103,
          -0.19743217527866364,
          0.004660067614167929
        ],
        [
          -0.471902459859848,
          -0.46280404925346375,
          -0.2711000442504883,
          -0.27101463079452515,
          -0.2788340151309967,
          0.09771383553743362,
          -0.059175990521907806,
          -0.1786009818315506,
          0.0877784863114357,
          -0.008457804098725319,
          -0.12809479236602783,
          -0.09893882274627686,
          -0.3484657108783722,
          0.07471977919340134,
          0.17740342020988464,
          -0.24795220792293549,
          0.16239634156227112,
          0.3296518623828888,
          -0.028416691347956657,
          -0.09048517793416977,
          -0.07842310518026352,
          0.18473225831985474,
          -0.1362573206424713,
          -0.05899994820356369,
          0.014605797827243805,
          -0.2126263976097107,
          -0.05730641260743141,
          0.2209354192018509,
          -0.202702596783638,
          0.3610866367816925,
          0.13108034431934357,
          0.2191484570503235
        ],
        [
          0.4408009648323059,
          -0.08942931890487671,
          -0.18965397775173187,
          0.023733731359243393,
          0.29579973220825195,
          0.058958299458026886,
          -0.03008785843849182,
          0.06154360622167587,
          -0.2026546448469162,
          0.16538742184638977,
          -0.3203926086425781,
          -0.20889808237552643,
          0.18518564105033875,
          -0.37546971440315247,
          -0.027042998000979424,
          0.20547287166118622,
          0.3540623188018799,
          -0.18113850057125092,
          0.11368560045957565,
          0.2818516790866852,
          0.13421155512332916,
          0.2617195248603821,
          0.2865128517150879,
          0.05897090584039688,
          -0.00746327918022871,
          0.32942724227905273,
          0.2379073202610016,
          0.30983641743659973,
          -0.05645598843693733,
          0.29181087017059326,
          0.04330262541770935,
          0.07513485103845596
        ],
        [
          -0.21175259351730347,
          0.06650499999523163,
          0.24931660294532776,
          0.0658445879817009,
          -0.14967918395996094,
          0.13701483607292175,
          -0.4583372473716736,
          0.39966800808906555,
          -0.12298481166362762,
          0.12582525610923767,
          0.14408347010612488,
          0.09003692865371704,
          0.23475885391235352,
          0.32860004901885986,
          0.08599013090133667,
          -0.3564493954181671,
          0.015835139900445938,
          0.223236083984375,
          0.2911532521247864,
          -0.18990574777126312,
          0.10528478771448135,
          0.1133384257555008,
          -0.32082879543304443,
          -0.23488016426563263,
          0.03973683714866638,
          0.22738447785377502,
          0.17985840141773224,
          0.19260279834270477,
          0.10581344366073608,
          0.36606550216674805,
          -0.012309598736464977,
          0.26051241159439087
        ],
        [
          0.38717612624168396,
          -0.10255727916955948,
          -0.01240683812648058,
          0.18521492183208466,
          0.055486030876636505,
          0.1188519075512886,
          -0.14974576234817505,
          -0.15259312093257904,
          0.1658351719379425,
          0.05512542277574539,
          0.03699783980846405,
          0.13529467582702637,
          0.21448153257369995,
          0.18919958174228668,
          0.38814717531204224,
          -0.2734494209289551,
          -0.3891240954399109,
          -0.17117427289485931,
          -0.09362015128135681,
          -0.21257176995277405,
          -0.07401050627231598,
          0.06858210265636444,
          -0.04866442829370499,
          0.10124152153730392,
          -0.09912662208080292,
          -0.19041213393211365,
          0.11497648805379868,
          0.07172989845275879,
          0.1780383139848709,
          -0.09857195615768433,
          -0.052123744040727615,
          -0.2907904088497162
        ],
        [
          0.1409672051668167,
          -0.23721985518932343,
          0.15459701418876648,
          -0.13038238883018494,
          -0.022486142814159393,
          0.3886774480342865,
          0.1636272817850113,
          -0.2597045302391052,
          -0.24452435970306396,
          -0.2841489911079407,
          0.2627940773963928,
          0.2719622552394867,
          0.022520186379551888,
          0.00909155048429966,
          0.05616070702672005,
          0.05922636017203331,
          -0.2313658446073532,
          -0.2751947343349457,
          0.12383855134248734,
          0.22285285592079163,
          -0.11666928976774216,
          -0.2529276907444,
          0.06682514399290085,
          -0.19063246250152588,
          0.13749772310256958,
          -0.06843666732311249,
          0.04169856756925583,
          0.256256639957428,
          0.389225572347641,
          0.06069793552160263,
          -0.0025387490168213844,
          0.21613796055316925
        ],
        [
          -0.16385023295879364,
          0.3489672839641571,
          -0.4756092131137848,
          0.2899722754955292,
          0.19579167664051056,
          0.14514639973640442,
          0.6347200274467468,
          0.03047139383852482,
          0.23224347829818726,
          0.3020135462284088,
          0.14594683051109314,
          -0.14531700313091278,
          -0.08263123780488968,
          -0.057805608958005905,
          -0.28684380650520325,
          -0.3110225796699524,
          0.12636038661003113,
          -0.04811212047934532,
          -0.12537504732608795,
          0.041618045419454575,
          0.04859483614563942,
          0.042899422347545624,
          -0.15726903080940247,
          0.23005078732967377,
          -0.33188140392303467,
          0.19956928491592407,
          0.0678468868136406,
          -0.030684472993016243,
          0.1543055921792984,
          0.30931970477104187,
          0.4479856789112091,
          0.07268697768449783
        ],
        [
          0.335857093334198,
          0.3724123239517212,
          -0.458918035030365,
          0.20629531145095825,
          -0.05230523645877838,
          -0.06748832017183304,
          0.12655578553676605,
          -0.007608695887029171,
          0.03366918861865997,
          -0.2894275486469269,
          0.29064980149269104,
          0.03384442254900932,
          -0.08835437148809433,
          0.1495959758758545,
          0.038600750267505646,
          0.006829794496297836,
          0.08246047794818878,
          0.08738014847040176,
          0.20025049149990082,
          -0.060919273644685745,
          -0.09001880884170532,
          -0.03485685586929321,
          -0.4004506766796112,
          0.16015556454658508,
          -0.04230160266160965,
          -0.09112030267715454,
          0.05442149564623833,
          0.15608884394168854,
          -0.23338954150676727,
          0.22064632177352905,
          0.1909613311290741,
          -0.1350114941596985
        ]
      ],
      "b": [
        0.20482712984085083,
        0.18377064168453217,
        0.07771176844835281,
        0.0638604536652565,
        0.06705798208713531,
        0.17158350348472595,
        -0.13229088485240936,
        0.24216723442077637,
        0.009873836301267147,
        0.21826213598251343,
        0.06834953278303146,
        0.5176019072532654,
        0.1119658350944519,
        0.3854007422924042,
        -0.16021864116191864,
        0.049376752227544785,
        0.1403944045305252,
        0.04001317918300629,
        0.09273733198642731,
        0.39304402470588684,
        0.4536195993423462,
        0.06884420663118362,
        0.14444997906684875,
        0.09017486870288849,
        -0.1390923410654068,
        0.05261937528848648,
        0.35855305194854736,
        0.16186639666557312,
        0.08376443386077881,
        0.15594160556793213,
        0.14293214678764343,
        0.00019560256623663008
      ]
    },
    {
      "W": [
        [
          -0.14581894874572754,
          -0.06133343651890755,
          0.2762051820755005,
          -0.02664826437830925,
          -0.16002318263053894,
          -0.009816535748541355,
          -1.2424784898757935,
          -0.17577607929706573,
          0.08590760082006454,
          -0.26903873682022095,
          -0.2971843183040619,
          -0.15992851555347443,
          0.28510546684265137,
          -0.627886950969696,
          -1.1621181964874268,
          -0.0837126225233078
        ],
        [
          -0.023785321041941643,
          -0.01152823120355606,
          -0.4185498058795929,
          -0.32746896147727966,
          -0.8488153219223022,
          0.3357078731060028,
          0.4240940511226654,
          -0.46545711159706116,
          0.7095625400543213,
          -0.16279371082782745,
          -0.040027447044849396,
          -0.03837686404585838,
          -0.15130819380283356,
          0.1872846931219101,
          -0.06449295580387115,
          -0.0712689608335495
        ],
        [
          -0.29096880555152893,
          0.5854737162590027,
          0.01986156962811947,
          0.016500111669301987,
          -0.16762597858905792,
          0.4448831379413605,
          -0.014153056778013706,
          0.11003834754228592,
          0.5457555651664734,
          -0.12342560291290283,
          -0.1778542846441269,
          0.26889902353286743,
          -0.6422454118728638,
          -0.05118321627378464,
          -0.13556663691997528,
          0.3849993646144867
        ],
        [
          0.1753443330526352,
          -0.25209981203079224,
          0.14809119701385498,
          -0.009918141178786755,
          -0.20267975330352783,
          -0.07305008918046951,
          -0.3094094395637512,
          0.1043466329574585,
          0.08738307654857635,
          0.07126370817422867,
          0.0586843267083168,
          -0.6608338952064514,
          0.17514505982398987,
          -0.23519477248191833,
          0.3200129568576813,
          -0.36394745111465454
        ],
        [
          0.6835262179374695,
          0.6645300984382629,
          -1.11668860912323,
          0.6823771595954895,
          0.5238787531852722,
          -0.3737298548221588,
          -0.9667263031005859,
          0.1483057141304016,
          -0.346305251121521,
          0.5281227827072144,
          0.6239464282989502,
          -0.10946185886859894,
          0.2613833546638489,
          -0.4301109313964844,
          -0.32861289381980896,
          -0.4556546211242676
        ],
        [
          0.07598093152046204,
          -0.5855244994163513,
          -1.502395510673523,
          -0.12080653756856918,
          -0.10121858865022659,
          -0.6926221251487732,
          -0.6613189578056335,
          -0.5401315689086914,
          0.3597331941127777,
          -0.14383208751678467,
          0.1848546415567398,
          0.009979305788874626,
          0.4250979423522949,
          -0.9167136549949646,
          0.04772032052278519,
          -0.5406978726387024
        ],
        [
          -0.42644914984703064,
          0.10831926763057709,
          -0.33645978569984436,
          -0.09768225252628326,
          -0.4803774058818817,
          0.007179302163422108,
          -0.09891311079263687,
          0.3320079445838928,
          -0.41069501638412476,
          0.17295731604099274,
          -0.06986532360315323,
          0.5103418827056885,
          -0.38738834857940674,
          0.4967992603778839,
          0.020215949043631554,
          0.45734187960624695
        ],
        [
          0.5076320171356201,
          0.12432056665420532,
          0.17036214470863342,
          0.37415751814842224,
          0.1486171931028366,
          0.35134416818618774,
          -0.5752866268157959,
          0.19705548882484436,
          -0.2913059890270233,
          0.11568174511194229,
          0.1176752820611,
          -0.23789173364639282,
          0.47359102964401245,
          0.059273023158311844,
          -0.7295257449150085,
          0.03464227169752121
        ],
        [
          -0.1747574657201767,
          0.548210620880127,
          0.03999383747577667,
          -0.4406425654888153,
          -0.050541993230581284,
          -0.24661365151405334,
          0.217678502202034,
          -0.3390204906463623,
          -0.30004647374153137,
          0.06635238230228424,
          -0.09951023757457733,
